{"learner":{"attributes":{"best_iteration":"957","best_score":"0.3666606085069361"},"feature_names":["ph","Hardness","Solids","Chloramines","Sulfate","Conductivity","Organic_carbon","Trihalomethanes","Turbidity"],"feature_types":["float","float","float","float","float","float","float","float","float"],"gradient_booster":{"model":{"gbtree_model_param":{"num_parallel_tree":"1","num_trees":"1158"},"iteration_indptr":[0,1,2,3,4,5,6,7,8,9,10,11,12,13,14,15,16,17,18,19,20,21,22,23,24,25,26,27,28,29,30,31,32,33,34,35,36,37,38,39,40,41,42,43,44,45,46,47,48,49,50,51,52,53,54,55,56,57,58,59,60,61,62,63,64,65,66,67,68,69,70,71,72,73,74,75,76,77,78,79,80,81,82,83,84,85,86,87,88,89,90,91,92,93,94,95,96,97,98,99,100,101,102,103,104,105,106,107,108,109,110,111,112,113,114,115,116,117,118,119,120,121,122,123,124,125,126,127,128,129,130,131,132,133,134,135,136,137,138,139,140,141,142,143,144,145,146,147,148,149,150,151,152,153,154,155,156,157,158,159,160,161,162,163,164,165,166,167,168,169,170,171,172,173,174,175,176,177,178,179,180,181,182,183,184,185,186,187,188,189,190,191,192,193,194,195,196,197,198,199,200,201,202,203,204,205,206,207,208,209,210,211,212,213,214,215,216,217,218,219,220,221,222,223,224,225,226,227,228,229,230,231,232,233,234,235,236,237,238,239,240,241,242,243,244,245,246,247,248,249,250,251,252,253,254,255,256,257,258,259,260,261,262,263,264,265,266,267,268,269,270,271,272,273,274,275,276,277,278,279,280,281,282,283,284,285,286,287,288,289,290,291,292,293,294,295,296,297,298,299,300,301,302,303,304,305,306,307,308,309,310,311,312,313,314,315,316,317,318,319,320,321,322,323,324,325,326,327,328,329,330,331,332,333,334,335,336,337,338,339,340,341,342,343,344,345,346,347,348,349,350,351,352,353,354,355,356,357,358,359,360,361,362,363,364,365,366,367,368,369,370,371,372,373,374,375,376,377,378,379,380,381,382,383,384,385,386,387,388,389,390,391,392,393,394,395,396,397,398,399,400,401,402,403,404,405,406,407,408,409,410,411,412,413,414,415,416,417,418,419,420,421,422,423,424,425,426,427,428,429,430,431,432,433,434,435,436,437,438,439,440,441,442,443,444,445,446,447,448,449,450,451,452,453,454,455,456,457,458,459,460,461,462,463,464,465,466,467,468,469,470,471,472,473,474,475,476,477,478,479,480,481,482,483,484,485,486,487,488,489,490,491,492,493,494,495,496,497,498,499,500,501,502,503,504,505,506,507,508,509,510,511,512,513,514,515,516,517,518,519,520,521,522,523,524,525,526,527,528,529,530,531,532,533,534,535,536,537,538,539,540,541,542,543,544,545,546,547,548,549,550,551,552,553,554,555,556,557,558,559,560,561,562,563,564,565,566,567,568,569,570,571,572,573,574,575,576,577,578,579,580,581,582,583,584,585,586,587,588,589,590,591,592,593,594,595,596,597,598,599,600,601,602,603,604,605,606,607,608,609,610,611,612,613,614,615,616,617,618,619,620,621,622,623,624,625,626,627,628,629,630,631,632,633,634,635,636,637,638,639,640,641,642,643,644,645,646,647,648,649,650,651,652,653,654,655,656,657,658,659,660,661,662,663,664,665,666,667,668,669,670,671,672,673,674,675,676,677,678,679,680,681,682,683,684,685,686,687,688,689,690,691,692,693,694,695,696,697,698,699,700,701,702,703,704,705,706,707,708,709,710,711,712,713,714,715,716,717,718,719,720,721,722,723,724,725,726,727,728,729,730,731,732,733,734,735,736,737,738,739,740,741,742,743,744,745,746,747,748,749,750,751,752,753,754,755,756,757,758,759,760,761,762,763,764,765,766,767,768,769,770,771,772,773,774,775,776,777,778,779,780,781,782,783,784,785,786,787,788,789,790,791,792,793,794,795,796,797,798,799,800,801,802,803,804,805,806,807,808,809,810,811,812,813,814,815,816,817,818,819,820,821,822,823,824,825,826,827,828,829,830,831,832,833,834,835,836,837,838,839,840,841,842,843,844,845,846,847,848,849,850,851,852,853,854,855,856,857,858,859,860,861,862,863,864,865,866,867,868,869,870,871,872,873,874,875,876,877,878,879,880,881,882,883,884,885,886,887,888,889,890,891,892,893,894,895,896,897,898,899,900,901,902,903,904,905,906,907,908,909,910,911,912,913,914,915,916,917,918,919,920,921,922,923,924,925,926,927,928,929,930,931,932,933,934,935,936,937,938,939,940,941,942,943,944,945,946,947,948,949,950,951,952,953,954,955,956,957,958,959,960,961,962,963,964,965,966,967,968,969,970,971,972,973,974,975,976,977,978,979,980,981,982,983,984,985,986,987,988,989,990,991,992,993,994,995,996,997,998,999,1000,1001,1002,1003,1004,1005,1006,1007,1008,1009,1010,1011,1012,1013,1014,1015,1016,1017,1018,1019,1020,1021,1022,1023,1024,1025,1026,1027,1028,1029,1030,1031,1032,1033,1034,1035,1036,1037,1038,1039,1040,1041,1042,1043,1044,1045,1046,1047,1048,1049,1050,1051,1052,1053,1054,1055,1056,1057,1058,1059,1060,1061,1062,1063,1064,1065,1066,1067,1068,1069,1070,1071,1072,1073,1074,1075,1076,1077,1078,1079,1080,1081,1082,1083,1084,1085,1086,1087,1088,1089,1090,1091,1092,1093,1094,1095,1096,1097,1098,1099,1100,1101,1102,1103,1104,1105,1106,1107,1108,1109,1110,1111,1112,1113,1114,1115,1116,1117,1118,1119,1120,1121,1122,1123,1124,1125,1126,1127,1128,1129,1130,1131,1132,1133,1134,1135,1136,1137,1138,1139,1140,1141,1142,1143,1144,1145,1146,1147,1148,1149,1150,1151,1152,1153,1154,1155,1156,1157,1158],"tree_info":[0,0,0,0,0,0,0,0,0,0,0,0,0,0,0,0,0,0,0,0,0,0,0,0,0,0,0,0,0,0,0,0,0,0,0,0,0,0,0,0,0,0,0,0,0,0,0,0,0,0,0,0,0,0,0,0,0,0,0,0,0,0,0,0,0,0,0,0,0,0,0,0,0,0,0,0,0,0,0,0,0,0,0,0,0,0,0,0,0,0,0,0,0,0,0,0,0,0,0,0,0,0,0,0,0,0,0,0,0,0,0,0,0,0,0,0,0,0,0,0,0,0,0,0,0,0,0,0,0,0,0,0,0,0,0,0,0,0,0,0,0,0,0,0,0,0,0,0,0,0,0,0,0,0,0,0,0,0,0,0,0,0,0,0,0,0,0,0,0,0,0,0,0,0,0,0,0,0,0,0,0,0,0,0,0,0,0,0,0,0,0,0,0,0,0,0,0,0,0,0,0,0,0,0,0,0,0,0,0,0,0,0,0,0,0,0,0,0,0,0,0,0,0,0,0,0,0,0,0,0,0,0,0,0,0,0,0,0,0,0,0,0,0,0,0,0,0,0,0,0,0,0,0,0,0,0,0,0,0,0,0,0,0,0,0,0,0,0,0,0,0,0,0,0,0,0,0,0,0,0,0,0,0,0,0,0,0,0,0,0,0,0,0,0,0,0,0,0,0,0,0,0,0,0,0,0,0,0,0,0,0,0,0,0,0,0,0,0,0,0,0,0,0,0,0,0,0,0,0,0,0,0,0,0,0,0,0,0,0,0,0,0,0,0,0,0,0,0,0,0,0,0,0,0,0,0,0,0,0,0,0,0,0,0,0,0,0,0,0,0,0,0,0,0,0,0,0,0,0,0,0,0,0,0,0,0,0,0,0,0,0,0,0,0,0,0,0,0,0,0,0,0,0,0,0,0,0,0,0,0,0,0,0,0,0,0,0,0,0,0,0,0,0,0,0,0,0,0,0,0,0,0,0,0,0,0,0,0,0,0,0,0,0,0,0,0,0,0,0,0,0,0,0,0,0,0,0,0,0,0,0,0,0,0,0,0,0,0,0,0,0,0,0,0,0,0,0,0,0,0,0,0,0,0,0,0,0,0,0,0,0,0,0,0,0,0,0,0,0,0,0,0,0,0,0,0,0,0,0,0,0,0,0,0,0,0,0,0,0,0,0,0,0,0,0,0,0,0,0,0,0,0,0,0,0,0,0,0,0,0,0,0,0,0,0,0,0,0,0,0,0,0,0,0,0,0,0,0,0,0,0,0,0,0,0,0,0,0,0,0,0,0,0,0,0,0,0,0,0,0,0,0,0,0,0,0,0,0,0,0,0,0,0,0,0,0,0,0,0,0,0,0,0,0,0,0,0,0,0,0,0,0,0,0,0,0,0,0,0,0,0,0,0,0,0,0,0,0,0,0,0,0,0,0,0,0,0,0,0,0,0,0,0,0,0,0,0,0,0,0,0,0,0,0,0,0,0,0,0,0,0,0,0,0,0,0,0,0,0,0,0,0,0,0,0,0,0,0,0,0,0,0,0,0,0,0,0,0,0,0,0,0,0,0,0,0,0,0,0,0,0,0,0,0,0,0,0,0,0,0,0,0,0,0,0,0,0,0,0,0,0,0,0,0,0,0,0,0,0,0,0,0,0,0,0,0,0,0,0,0,0,0,0,0,0,0,0,0,0,0,0,0,0,0,0,0,0,0,0,0,0,0,0,0,0,0,0,0,0,0,0,0,0,0,0,0,0,0,0,0,0,0,0,0,0,0,0,0,0,0,0,0,0,0,0,0,0,0,0,0,0,0,0,0,0,0,0,0,0,0,0,0,0,0,0,0,0,0,0,0,0,0,0,0,0,0,0,0,0,0,0,0,0,0,0,0,0,0,0,0,0,0,0,0,0,0,0,0,0,0,0,0,0,0,0,0,0,0,0,0,0,0,0,0,0,0,0,0,0,0,0,0,0,0,0,0,0,0,0,0,0,0,0,0,0,0,0,0,0,0,0,0,0,0,0,0,0,0,0,0,0,0,0,0,0,0,0,0,0,0,0,0,0,0,0,0,0,0,0,0,0,0,0,0,0,0,0,0,0,0,0,0,0,0,0,0,0,0,0,0,0,0,0,0,0,0,0,0,0,0,0,0,0,0,0,0,0,0,0,0,0,0,0,0,0,0,0,0,0,0,0,0,0,0,0,0,0,0,0,0,0,0,0,0,0,0,0,0,0,0,0,0,0,0,0,0,0,0,0,0,0,0,0,0,0,0,0,0,0,0,0,0,0,0,0,0,0,0,0,0,0,0,0,0,0,0,0,0,0,0,0,0,0,0,0,0,0,0,0,0,0,0,0,0,0,0,0,0,0,0,0,0,0,0,0,0,0,0,0,0,0,0,0,0,0,0,0,0,0,0,0,0,0,0,0,0,0,0,0,0,0,0,0,0,0,0,0,0,0,0,0,0,0,0,0,0,0,0,0,0,0,0,0,0,0,0,0,0,0,0,0,0,0,0,0,0,0,0,0,0,0,0,0,0,0,0,0,0,0,0,0,0,0,0,0,0,0,0,0,0,0,0,0,0,0,0,0,0,0,0,0,0,0,0,0,0,0,0],"trees":[{"base_weights":[-0E0,1.272381E0,-4.311068E-2,-3.3428572E-2,1.5747368E0,-1.6328818E-1,2.2411643E-1,2.5714284E-1,1.7129412E0,-5.3272624E-2,-6.587629E-1,-5.844827E-1,4.7901908E-1,3.2E-2,-1.8666666E-2,1.7975309E0,-0E0,-1.7588076E-1,5.8105266E-1,-9.814433E-1,2.930693E-1,-7.6135266E-1,7.4482757E-1,8.4134364E-1,7.293447E-2,5.6684207E-2,5.3333333E-3,-3.2875E-1,1.0692307E-1,1.4E0,-3.674074E-1,-1.1176471E-1,-1.2229075E0,6.457831E-1,-1.0727273E0,-2.7118644E-2,-1.0236843E0,4.8545454E-2,-3.709091E-2,6.098113E-1,1.2984127E0,1.0105263E0,-1.0604027E-1,1.3594937E-2,-1.44267995E-2,-1.3342105E-2,9.9677425E-3,4.542282E-2,-3.2E-2,-2.632258E-2,2.0608695E-2,3.675E-2,-1.47857135E-2,-1.2642857E-2,-4.3474283E-2,3.4526315E-2,-1.16E-2,-4.5999996E-2,1.3499999E-2,2.6482757E-2,-2.4352942E-2,-3.438298E-2,1.12E-2,3.0148758E-2,8.027027E-3,4.9659573E-2,6.3333334E-3,4.542857E-2,-8.842105E-3,3.025641E-3,-2.452941E-2],"categories":[],"categories_nodes":[],"categories_segments":[],"categories_sizes":[],"default_left":[0,0,0,0,0,0,0,0,0,0,0,0,0,0,0,0,0,0,0,0,0,0,0,0,0,0,0,0,0,0,0,0,0,0,0,0,0,0,0,0,0,0,0,0,0,0,0,0,0,0,0,0,0,0,0,0,0,0,0,0,0,0,0,0,0,0,0,0,0,0,0],"id":0,"left_children":[1,3,5,-1,7,9,11,13,15,17,19,21,23,-1,-1,25,-1,27,29,31,33,35,37,39,41,-1,-1,43,45,47,49,51,53,55,57,59,61,-1,-1,63,65,67,69,-1,-1,-1,-1,-1,-1,-1,-1,-1,-1,-1,-1,-1,-1,-1,-1,-1,-1,-1,-1,-1,-1,-1,-1,-1,-1,-1,-1],"loss_changes":[4.393742E1,2.0743347E1,2.4911364E1,0E0,3.6873283E0,2.9070139E1,4.9839867E1,3.1996827E0,3.0790672E0,3.422366E1,3.0148819E1,1.4205399E1,2.6846378E1,0E0,0E0,2.4730988E0,0E0,1.6009945E1,5.5960274E1,1.500708E1,1.2813872E1,9.834871E0,1.4583386E1,9.256081E0,1.4922516E1,0E0,0E0,2.8771833E1,1.6296595E1,1.2494896E1,1.877046E1,9.190862E0,9.49231E0,1.1342226E1,4.6559086E0,1.12399845E1,7.003765E0,0E0,0E0,8.563284E0,1.16879425E1,9.938196E0,1.112262E1,0E0,0E0,0E0,0E0,0E0,0E0,0E0,0E0,0E0,0E0,0E0,0E0,0E0,0E0,0E0,0E0,0E0,0E0,0E0,0E0,0E0,0E0,0E0,0E0,0E0,0E0,0E0,0E0],"parents":[2147483647,0,0,1,1,2,2,4,4,5,5,6,6,7,7,8,8,9,9,10,10,11,11,12,12,15,15,17,17,18,18,19,19,20,20,21,21,22,22,23,23,24,24,27,27,28,28,29,29,30,30,31,31,32,32,33,33,34,34,35,35,36,36,39,39,40,40,41,41,42,42],"right_children":[2,4,6,-1,8,10,12,14,16,18,20,22,24,-1,-1,26,-1,28,30,32,34,36,38,40,42,-1,-1,44,46,48,50,52,54,56,58,60,62,-1,-1,64,66,68,70,-1,-1,-1,-1,-1,-1,-1,-1,-1,-1,-1,-1,-1,-1,-1,-1,-1,-1,-1,-1,-1,-1,-1,-1,-1,-1,-1,-1],"split_conditions":[3.7206978E-1,2.3458052E-1,5.927181E-1,-3.3428572E-2,4.2960998E-1,5.901004E-1,4.4199556E-1,3.6779523E-1,5.98953E-1,6.6753495E-1,4.5197657E-1,7.259676E-1,5.5207634E-1,3.2E-2,-1.8666666E-2,6.7824686E-1,-0E0,5.821506E-1,4.9195817E-1,4.46134E-1,6.2972283E-1,4.0991783E-1,3.6472678E-1,5.159081E-1,6.0730994E-1,5.6684207E-2,5.3333333E-3,4.913635E-1,5.324362E-1,6.940466E-1,5.857031E-1,4.2948717E-1,3.03438E-1,4.6843362E-1,7.877977E-1,4.4268718E-1,6.9974214E-1,4.8545454E-2,-3.709091E-2,3.559186E-1,5.3571135E-1,3.9401776E-1,5.5852646E-1,1.3594937E-2,-1.44267995E-2,-1.3342105E-2,9.9677425E-3,4.542282E-2,-3.2E-2,-2.632258E-2,2.0608695E-2,3.675E-2,-1.47857135E-2,-1.2642857E-2,-4.3474283E-2,3.4526315E-2,-1.16E-2,-4.5999996E-2,1.3499999E-2,2.6482757E-2,-2.4352942E-2,-3.438298E-2,1.12E-2,3.0148758E-2,8.027027E-3,4.9659573E-2,6.3333334E-3,4.542857E-2,-8.842105E-3,3.025641E-3,-2.452941E-2],"split_indices":[4,2,3,0,0,0,0,0,5,4,2,4,1,0,0,0,0,1,0,1,4,1,2,5,3,0,0,4,4,6,1,7,5,5,4,8,1,0,0,5,6,5,6,0,0,0,0,0,0,0,0,0,0,0,0,0,0,0,0,0,0,0,0,0,0,0,0,0,0,0,0],"split_type":[0,0,0,0,0,0,0,0,0,0,0,0,0,0,0,0,0,0,0,0,0,0,0,0,0,0,0,0,0,0,0,0,0,0,0,0,0,0,0,0,0,0,0,0,0,0,0,0,0,0,0,0,0,0,0,0,0,0,0,0,0,0,0,0,0,0,0,0,0,0,0],"sum_hessian":[7.99E2,2.525E1,7.7375E2,2.5E0,2.275E1,5.3425E2,2.395E2,2.5E0,2.025E1,4.3825E2,9.6E1,5.7E1,1.825E2,1.25E0,1.25E0,1.925E1,1E0,3.68E2,7.025E1,7.175E1,2.425E1,5.075E1,6.25E0,9.575E1,8.675E1,1.8E1,1.25E0,2.39E2,1.29E2,3.75E1,3.275E1,1.6E1,5.575E1,1.975E1,4.5E0,1.375E1,3.7E1,4.5E0,1.75E0,6.525E1,3.05E1,1.325E1,7.35E1,3.85E1,2.005E2,3.7E1,9.2E1,3.625E1,1.25E0,2.225E1,1.05E1,3E0,1.3E1,1.3E1,4.275E1,1.325E1,6.5E0,3.5E0,1E0,6.25E0,7.5E0,3.425E1,2.75E0,2.925E1,3.6E1,2.25E1,8E0,9.5E0,3.75E0,5.75E1,1.6E1],"tree_param":{"num_deleted":"0","num_feature":"9","num_nodes":"71","size_leaf_vector":"1"}},{"base_weights":[1.3574894E-5,1.236551E0,-4.1734815E-2,-3.2718837E-2,1.5317656E0,-1.5849067E-1,2.1788602E-1,2.5241268E-1,1.665759E0,-5.1663805E-2,-6.396725E-1,-5.6721663E-1,4.653676E-1,3.1639494E-2,-1.8525684E-2,1.7480774E0,-0E0,-1.7061509E-1,5.638805E-1,-9.5280856E-1,2.8384796E-1,-1.2124825E-1,-1.0981886E0,8.173516E-1,7.089089E-2,5.5115536E-2,5.2444674E-3,-1.0906405E0,-1.2348622E-1,1.3589492E0,-3.565189E-1,-1.0695374E-1,-1.1877007E0,6.27498E-1,-1.046275E0,-3.8932267E-1,4.5608513E-2,3.5523202E-3,-1.2213348E0,1.2400423E0,5.749357E-1,9.8291576E-1,-1.0311114E-1,-3.9720967E-2,3.183431E-2,9.0701515E-3,-6.4215926E-3,4.4119082E-2,-3.147119E-2,-2.5571153E-2,2.004616E-2,2.5739854E-2,-1.858775E-2,-1.2291131E-2,-4.2219553E-2,3.3572607E-2,-1.1298735E-2,-4.413921E-2,5.307062E-3,-4.8478995E-2,-2.3484917E-3,-4.3823037E-2,-1.35862995E-2,5.2605588E-2,1.6718518E-2,2.6489006E-2,6.9245733E-3,4.4216357E-2,-8.632822E-3,2.9364333E-3,-2.3840228E-2],"categories":[],"categories_nodes":[],"categories_segments":[],"categories_sizes":[],"default_left":[0,0,0,0,0,0,0,0,0,0,0,0,0,0,0,0,0,0,0,0,0,0,0,0,0,0,0,0,0,0,0,0,0,0,0,0,0,0,0,0,0,0,0,0,0,0,0,0,0,0,0,0,0,0,0,0,0,0,0,0,0,0,0,0,0,0,0,0,0,0,0],"id":1,"left_children":[1,3,5,-1,7,9,11,13,15,17,19,21,23,-1,-1,25,-1,27,29,31,33,35,37,39,41,-1,-1,43,45,47,49,51,53,55,57,59,-1,-1,61,63,65,67,69,-1,-1,-1,-1,-1,-1,-1,-1,-1,-1,-1,-1,-1,-1,-1,-1,-1,-1,-1,-1,-1,-1,-1,-1,-1,-1,-1,-1],"loss_changes":[4.1463215E1,1.973819E1,2.3509588E1,0E0,3.4565086E0,2.7407825E1,4.6973938E1,3.1373153E0,2.9118767E0,3.2215736E1,2.8380302E1,1.3475403E1,2.5328125E1,0E0,0E0,2.3144264E0,0E0,1.5742962E1,5.270656E1,1.4193359E1,1.215358E1,1.4886661E1,4.186636E0,9.017067E0,1.4113553E1,0E0,0E0,1.0345131E1,1.3640027E1,1.1934044E1,1.7734245E1,8.916294E0,8.934578E0,1.0736187E1,3.2481246E0,1.0766085E1,0E0,0E0,3.5618324E0,1.0795826E1,6.41448E0,9.429568E0,1.0502523E1,0E0,0E0,0E0,0E0,0E0,0E0,0E0,0E0,0E0,0E0,0E0,0E0,0E0,0E0,0E0,0E0,0E0,0E0,0E0,0E0,0E0,0E0,0E0,0E0,0E0,0E0,0E0,0E0],"parents":[2147483647,0,0,1,1,2,2,4,4,5,5,6,6,7,7,8,8,9,9,10,10,11,11,12,12,15,15,17,17,18,18,19,19,20,20,21,21,22,22,23,23,24,24,27,27,28,28,29,29,30,30,31,31,32,32,33,33,34,34,35,35,38,38,39,39,40,40,41,41,42,42],"right_children":[2,4,6,-1,8,10,12,14,16,18,20,22,24,-1,-1,26,-1,28,30,32,34,36,38,40,42,-1,-1,44,46,48,50,52,54,56,58,60,-1,-1,62,64,66,68,70,-1,-1,-1,-1,-1,-1,-1,-1,-1,-1,-1,-1,-1,-1,-1,-1,-1,-1,-1,-1,-1,-1,-1,-1,-1,-1,-1,-1],"split_conditions":[3.7206978E-1,2.3458052E-1,5.927181E-1,-3.2718837E-2,4.2960998E-1,5.901004E-1,4.4199556E-1,3.2103738E-1,5.98953E-1,6.6753495E-1,4.5197657E-1,3.422415E-1,5.5207634E-1,3.1639494E-2,-1.8525684E-2,6.7824686E-1,-0E0,3.2815778E-1,4.9195817E-1,4.46134E-1,6.2972283E-1,7.259676E-1,3.3784527E-1,5.682452E-1,6.0730994E-1,5.5115536E-2,5.2444674E-3,7.5992185E-1,4.913635E-1,6.940466E-1,5.857031E-1,6.3598096E-1,3.03438E-1,4.6843362E-1,7.8291476E-1,3.0153006E-1,4.5608513E-2,3.5523202E-3,5.8055E-1,4.3273294E-1,4.3616447E-1,3.9401776E-1,5.5852646E-1,-3.9720967E-2,3.183431E-2,9.0701515E-3,-6.4215926E-3,4.4119082E-2,-3.147119E-2,-2.5571153E-2,2.004616E-2,2.5739854E-2,-1.858775E-2,-1.2291131E-2,-4.2219553E-2,3.3572607E-2,-1.1298735E-2,-4.413921E-2,5.307062E-3,-4.8478995E-2,-2.3484917E-3,-4.3823037E-2,-1.35862995E-2,5.2605588E-2,1.6718518E-2,2.6489006E-2,6.9245733E-3,4.4216357E-2,-8.632822E-3,2.9364333E-3,-2.3840228E-2],"split_indices":[4,2,3,0,0,0,0,3,5,4,2,2,1,0,0,0,0,0,0,1,4,4,7,4,3,0,0,1,4,6,1,0,5,5,4,0,0,0,2,1,8,5,6,0,0,0,0,0,0,0,0,0,0,0,0,0,0,0,0,0,0,0,0,0,0,0,0,0,0,0,0],"split_type":[0,0,0,0,0,0,0,0,0,0,0,0,0,0,0,0,0,0,0,0,0,0,0,0,0,0,0,0,0,0,0,0,0,0,0,0,0,0,0,0,0,0,0,0,0,0,0,0,0,0,0,0,0,0,0,0,0,0,0,0,0,0,0,0,0,0,0,0,0,0,0],"sum_hessian":[7.9887146E2,2.5234413E1,7.73637E2,2.4993017E0,2.2735111E1,5.341814E2,2.3945566E2,2.4995713E0,2.023554E1,4.382099E2,9.5971504E1,5.6984333E1,1.8247131E2,1.2497222E0,1.249849E0,1.923554E1,1E0,3.6798386E2,7.022602E1,7.172757E1,2.4243937E1,3.1741247E1,2.5243088E1,9.572883E1,8.674249E1,1.798555E1,1.2499912E0,1.6749298E1,3.5123456E2,3.7480988E1,3.274503E1,1.5998277E1,5.572929E1,1.9745834E1,4.4981036E0,2.7993456E1,3.7477915E0,2.249175E0,2.2993912E1,3.324063E1,6.2488197E1,1.3245027E1,7.349746E1,1.5499329E1,1.2499689E0,6.0997223E1,2.9023734E2,3.6231308E1,1.24968E0,2.2246145E1,1.0498885E1,5.2490764E0,1.07492E1,1.299948E1,4.272981E1,1.3246052E1,6.4997816E0,3.2482815E0,1.2498223E0,4.748797E0,2.324466E1,1.6745403E1,6.2485085E0,1.7993578E1,1.5247055E1,3.1993319E1,3.0494879E1,9.4951E0,3.7499266E0,5.749987E1,1.5997593E1],"tree_param":{"num_deleted":"0","num_feature":"9","num_nodes":"71","size_leaf_vector":"1"}},{"base_weights":[6.14158E-5,1.2030957E0,-4.0497243E-2,-3.203666E-2,1.4917591E0,-1.5390633E-1,2.1169896E-1,2.4780014E-1,1.6220036E0,-5.0111044E-2,-6.21696E-1,-5.515788E-1,4.5227894E-1,3.1122658E-2,-1.8218627E-2,1.7023252E0,-0E0,-1.8051904E-1,4.793392E-1,-9.2573506E-1,2.7474487E-1,-7.1962875E-1,7.114403E-1,7.9440826E-1,6.8916716E-2,5.3668596E-2,5.1571187E-3,-1.0586617E0,-1.3338266E-1,1.2605753E0,-3.3679762E-1,-1.031686E-1,-1.1543175E0,6.0996413E-1,-1.0223303E0,-1.0599889E-2,-9.734008E-1,4.648235E-2,-3.558405E-2,5.715315E-1,1.235123E0,9.567004E-1,-1.0026889E-1,-3.861858E-2,3.1310994E-2,-4.963101E-3,3.449669E-2,4.1677322E-2,-5.918018E-4,-2.3726052E-2,1.692645E-2,2.3876945E-2,-1.9268703E-2,-1.19500235E-2,-4.1037295E-2,3.266263E-2,-1.1005911E-2,-4.317695E-2,5.2186497E-3,2.6253264E-2,-2.330499E-2,-3.6856633E-2,-6.7934245E-3,2.8663503E-2,7.189158E-3,4.7399446E-2,5.627673E-3,4.3075167E-2,-8.428739E-3,-6.582233E-3,3.0637149E-2],"categories":[],"categories_nodes":[],"categories_segments":[],"categories_sizes":[],"default_left":[0,0,0,0,0,0,0,0,0,0,0,0,0,0,0,0,0,0,0,0,0,0,0,0,0,0,0,0,0,0,0,0,0,0,0,0,0,0,0,0,0,0,0,0,0,0,0,0,0,0,0,0,0,0,0,0,0,0,0,0,0,0,0,0,0,0,0,0,0,0,0],"id":2,"left_children":[1,3,5,-1,7,9,11,13,15,17,19,21,23,-1,-1,25,-1,27,29,31,33,35,37,39,41,-1,-1,43,45,47,49,51,53,55,57,59,61,-1,-1,63,65,67,69,-1,-1,-1,-1,-1,-1,-1,-1,-1,-1,-1,-1,-1,-1,-1,-1,-1,-1,-1,-1,-1,-1,-1,-1,-1,-1,-1,-1],"loss_changes":[3.917801E1,1.8804089E1,2.2174673E1,0E0,3.24971E0,2.587888E1,4.4375187E1,3.0352814E0,2.7611809E0,3.0375586E1,2.6727505E1,1.281324E1,2.3913475E1,0E0,0E0,2.1736336E0,0E0,1.4360055E1,5.592765E1,1.3417843E1,1.1551168E1,9.196306E0,1.3383913E1,8.609673E0,1.3357252E1,0E0,0E0,9.895416E0,1.3932332E1,7.524002E0,1.8155306E1,8.733356E0,8.429054E0,1.0168721E1,3.1165366E0,1.0677187E1,6.812668E0,0E0,0E0,8.089224E0,1.0891426E1,8.957818E0,1.0096891E1,0E0,0E0,0E0,0E0,0E0,0E0,0E0,0E0,0E0,0E0,0E0,0E0,0E0,0E0,0E0,0E0,0E0,0E0,0E0,0E0,0E0,0E0,0E0,0E0,0E0,0E0,0E0,0E0],"parents":[2147483647,0,0,1,1,2,2,4,4,5,5,6,6,7,7,8,8,9,9,10,10,11,11,12,12,15,15,17,17,18,18,19,19,20,20,21,21,22,22,23,23,24,24,27,27,28,28,29,29,30,30,31,31,32,32,33,33,34,34,35,35,36,36,39,39,40,40,41,41,42,42],"right_children":[2,4,6,-1,8,10,12,14,16,18,20,22,24,-1,-1,26,-1,28,30,32,34,36,38,40,42,-1,-1,44,46,48,50,52,54,56,58,60,62,-1,-1,64,66,68,70,-1,-1,-1,-1,-1,-1,-1,-1,-1,-1,-1,-1,-1,-1,-1,-1,-1,-1,-1,-1,-1,-1,-1,-1,-1,-1,-1,-1],"split_conditions":[3.7206978E-1,2.3458052E-1,5.927181E-1,-3.203666E-2,4.2960998E-1,5.901004E-1,4.4199556E-1,3.2103738E-1,5.98953E-1,6.4998865E-1,4.5197657E-1,7.259676E-1,5.5207634E-1,3.1122658E-2,-1.8218627E-2,6.7824686E-1,-0E0,3.2815778E-1,4.9195817E-1,4.46134E-1,6.2972283E-1,4.0991783E-1,3.6472678E-1,5.159081E-1,6.0730994E-1,5.3668596E-2,5.1571187E-3,7.5992185E-1,7.2831875E-1,6.1738497E-1,5.857031E-1,3.8120174E-1,3.03438E-1,4.6843362E-1,7.8291476E-1,4.4268718E-1,5.962616E-1,4.648235E-2,-3.558405E-2,3.559186E-1,5.3571135E-1,3.9401776E-1,7.392131E-1,-3.861858E-2,3.1310994E-2,-4.963101E-3,3.449669E-2,4.1677322E-2,-5.918018E-4,-2.3726052E-2,1.692645E-2,2.3876945E-2,-1.9268703E-2,-1.19500235E-2,-4.1037295E-2,3.266263E-2,-1.1005911E-2,-4.317695E-2,5.2186497E-3,2.6253264E-2,-2.330499E-2,-3.6856633E-2,-6.7934245E-3,2.8663503E-2,7.189158E-3,4.7399446E-2,5.627673E-3,4.3075167E-2,-8.428739E-3,-6.582233E-3,3.0637149E-2],"split_indices":[4,2,3,0,0,0,0,3,5,4,2,4,1,0,0,0,0,0,0,1,4,1,2,5,3,0,0,1,5,5,1,5,5,5,4,8,1,0,0,5,6,5,4,0,0,0,0,0,0,0,0,0,0,0,0,0,0,0,0,0,0,0,0,0,0,0,0,0,0,0,0],"split_type":[0,0,0,0,0,0,0,0,0,0,0,0,0,0,0,0,0,0,0,0,0,0,0,0,0,0,0,0,0,0,0,0,0,0,0,0,0,0,0,0,0,0,0,0,0,0,0,0,0,0,0,0,0,0,0,0,0,0,0,0,0,0,0,0,0,0,0,0,0,0,0],"sum_hessian":[7.985545E2,2.5189724E1,7.733648E2,2.4972672E0,2.2692457E1,5.3401294E2,2.3935185E2,2.4986205E0,2.0193836E1,4.3812146E2,9.589147E1,5.6952553E1,1.823993E2,1.2489777E0,1.2496428E0,1.9193836E1,1E0,3.5221573E2,8.590574E1,7.166446E1,2.4227015E1,5.0714222E1,6.2383313E0,9.567851E1,8.672079E1,1.794387E1,1.2499651E0,1.6741592E1,3.3547412E2,4.367571E1,4.2230026E1,1.5994869E1,5.566959E1,1.9733799E1,4.4932156E0,1.3745544E1,3.6968678E1,4.4911923E0,1.7471387E0,6.5219604E1,3.045891E1,1.3230654E1,7.3490135E1,1.5492138E1,1.2494541E0,3.282246E2,7.249502E0,3.968085E1,3.994859E0,2.8234373E1,1.3995652E1,5.747788E0,1.0247081E1,1.299798E1,4.267161E1,1.3234651E1,6.4991484E0,3.2434072E0,1.2498082E0,6.2492604E0,7.4962835E0,2.6975437E1,9.993241E0,2.9228874E1,3.5990726E1,2.246083E1,7.998079E0,9.48094E0,3.7497137E0,6.724062E1,6.2495127E0],"tree_param":{"num_deleted":"0","num_feature":"9","num_nodes":"71","size_leaf_vector":"1"}},{"base_weights":[2.4958476E-4,1.1717844E0,-3.915761E-2,-3.1380247E-2,1.4544253E0,-1.493831E-1,2.0600682E-1,2.4332328E-1,1.5813057E0,-4.8484426E-2,-6.04548E-1,-5.361578E-1,4.398513E-1,3.0783951E-2,-1.8082146E-2,1.6598711E0,-0E0,-1.6058338E-1,5.3279245E-1,-8.9992136E-1,2.660275E-1,-1.0520426E-1,-1.0497962E0,7.7231145E-1,6.7509815E-2,5.2329928E-2,5.071263E-3,-3.0802584E-1,1.1205097E-1,1.2850755E0,-3.3589035E-1,-9.9648885E-2,-1.1225936E0,1.0287367E0,-2.952382E-1,-3.595043E-1,4.3581028E-2,-1.3985917E-1,-1.227182E0,1.1816484E0,5.380629E-1,4.5872337E-1,-3.0354548E-1,1.323566E-2,-1.3616323E-2,-1.2855974E-2,9.983826E-3,4.185056E-2,-3.163887E-2,-2.4185661E-2,1.9046308E-2,3.5570078E-2,-1.4003137E-2,-1.161916E-2,-3.9920427E-2,4.1819397E-2,-1.6109746E-2,8.897953E-3,-2.7550664E-2,-4.6801228E-2,-1.6881204E-3,2.4273738E-2,-3.7061714E-2,-4.5636356E-2,-1.1301326E-2,5.0384328E-2,1.5661046E-2,9.85875E-3,3.131322E-2,4.416689E-3,4.0483896E-2,1.8313264E-2,-1.7424587E-2],"categories":[],"categories_nodes":[],"categories_segments":[],"categories_sizes":[],"default_left":[0,0,0,0,0,0,0,0,0,0,0,0,0,0,0,0,0,0,0,0,0,0,0,0,0,0,0,0,0,0,0,0,0,0,0,0,0,0,0,0,0,0,0,0,0,0,0,0,0,0,0,0,0,0,0,0,0,0,0,0,0,0,0,0,0,0,0,0,0,0,0,0,0],"id":3,"left_children":[1,3,5,-1,7,9,11,13,15,17,19,21,23,-1,-1,25,-1,27,29,31,33,35,37,39,41,-1,-1,43,45,47,49,51,53,55,57,59,-1,61,63,65,67,69,71,-1,-1,-1,-1,-1,-1,-1,-1,-1,-1,-1,-1,-1,-1,-1,-1,-1,-1,-1,-1,-1,-1,-1,-1,-1,-1,-1,-1,-1,-1],"loss_changes":[3.7048878E1,1.793404E1,2.0939398E1,0E0,3.0629768E0,2.4464348E1,4.190922E1,2.9768183E0,2.6247635E0,2.8653208E1,2.5185509E1,1.2588892E1,2.255241E1,0E0,0E0,2.0481262E0,0E0,1.4884365E1,4.696366E1,1.2696957E1,1.1164723E1,1.3366881E1,3.919855E0,8.453926E0,1.2884621E1,0E0,0E0,2.6421303E1,1.56443E1,1.137022E1,1.5919052E1,8.4991E0,7.968933E0,7.1142063E0,5.946906E0,1.0295453E1,0E0,6.754112E0,4.6638527E0,1.0121994E1,6.2374344E0,1.1642896E1,1.1876675E1,0E0,0E0,0E0,0E0,0E0,0E0,0E0,0E0,0E0,0E0,0E0,0E0,0E0,0E0,0E0,0E0,0E0,0E0,0E0,0E0,0E0,0E0,0E0,0E0,0E0,0E0,0E0,0E0,0E0,0E0],"parents":[2147483647,0,0,1,1,2,2,4,4,5,5,6,6,7,7,8,8,9,9,10,10,11,11,12,12,15,15,17,17,18,18,19,19,20,20,21,21,22,22,23,23,24,24,27,27,28,28,29,29,30,30,31,31,32,32,33,33,34,34,35,35,37,37,38,38,39,39,40,40,41,41,42,42],"right_children":[2,4,6,-1,8,10,12,14,16,18,20,22,24,-1,-1,26,-1,28,30,32,34,36,38,40,42,-1,-1,44,46,48,50,52,54,56,58,60,-1,62,64,66,68,70,72,-1,-1,-1,-1,-1,-1,-1,-1,-1,-1,-1,-1,-1,-1,-1,-1,-1,-1,-1,-1,-1,-1,-1,-1,-1,-1,-1,-1,-1,-1],"split_conditions":[3.7206978E-1,2.3458052E-1,5.927181E-1,-3.1380247E-2,4.2960998E-1,5.901004E-1,4.4199556E-1,3.6779523E-1,5.98953E-1,6.6753495E-1,4.5197657E-1,3.422415E-1,5.5207634E-1,3.0783951E-2,-1.8082146E-2,6.7824686E-1,-0E0,5.821506E-1,4.9195817E-1,4.46134E-1,5.749583E-1,7.259676E-1,3.7045428E-1,5.682452E-1,5.424231E-1,5.2329928E-2,5.071263E-3,4.913635E-1,5.324362E-1,6.940466E-1,5.857031E-1,4.2948717E-1,3.03438E-1,7.085342E-1,4.4030574E-1,3.0153006E-1,4.3581028E-2,4.4268718E-1,5.9580076E-1,4.3273294E-1,6.8578357E-1,5.8126915E-1,3.348722E-1,1.323566E-2,-1.3616323E-2,-1.2855974E-2,9.983826E-3,4.185056E-2,-3.163887E-2,-2.4185661E-2,1.9046308E-2,3.5570078E-2,-1.4003137E-2,-1.161916E-2,-3.9920427E-2,4.1819397E-2,-1.6109746E-2,8.897953E-3,-2.7550664E-2,-4.6801228E-2,-1.6881204E-3,2.4273738E-2,-3.7061714E-2,-4.5636356E-2,-1.1301326E-2,5.0384328E-2,1.5661046E-2,9.85875E-3,3.131322E-2,4.416689E-3,4.0483896E-2,1.8313264E-2,-1.7424587E-2],"split_indices":[4,2,3,0,0,0,0,0,5,4,2,2,1,0,0,0,0,1,0,1,4,4,1,4,7,0,0,4,4,6,1,7,5,0,5,0,0,8,1,1,4,0,8,0,0,0,0,0,0,0,0,0,0,0,0,0,0,0,0,0,0,0,0,0,0,0,0,0,0,0,0,0,0],"split_type":[0,0,0,0,0,0,0,0,0,0,0,0,0,0,0,0,0,0,0,0,0,0,0,0,0,0,0,0,0,0,0,0,0,0,0,0,0,0,0,0,0,0,0,0,0,0,0,0,0,0,0,0,0,0,0,0,0,0,0,0,0,0,0,0,0,0,0,0,0,0,0,0,0],"sum_hessian":[7.980515E2,2.5118126E1,7.7293335E2,2.4939847E0,2.2624142E1,5.3375616E2,2.3917722E2,2.4968681E0,2.0127274E1,4.3799078E2,9.576537E1,5.689287E1,1.8228433E2,1.247757E0,1.2491113E0,1.9127274E1,1E0,3.679312E2,7.005957E1,7.156544E1,2.4199938E1,3.1697508E1,2.5195366E1,9.5590096E1,8.6694244E1,1.7877352E1,1.2499226E0,2.389451E2,1.2898611E2,3.7350048E1,3.2709522E1,1.5991054E1,5.5574387E1,9.9814005E0,1.4218536E1,2.796599E1,3.7315185E0,4.4941053E0,2.070126E1,3.3164894E1,6.2425198E1,4.2216984E1,4.447726E1,3.8494564E1,2.0045053E2,3.699466E1,9.1991455E1,3.6100197E1,1.2498516E0,2.221822E1,1.0491302E1,2.996856E0,1.2994198E1,1.299558E1,4.2578808E1,8.23415E0,1.7472506E0,7.478749E0,6.739788E0,4.737041E0,2.3228949E1,2.4992921E0,1.9948134E0,1.470954E1,5.9917192E0,1.7932764E1,1.5232132E1,4.54499E1,1.6975294E1,3.22251E1,9.991883E0,9.988758E0,3.4488503E1],"tree_param":{"num_deleted":"0","num_feature":"9","num_nodes":"73","size_leaf_vector":"1"}},{"base_weights":[3.6990523E-4,1.1423905E0,-3.792749E-2,-3.0747982E-2,1.4194757E0,-1.4504437E-1,2.0034796E-1,2.389565E-1,1.5433466E0,-6.415654E-2,-6.838618E-1,-5.025528E-1,4.3445545E-1,3.0295027E-2,-1.7784992E-2,1.6203674E0,-0E0,-1.8472306E-1,4.4282264E-1,-9.6690273E-1,1.02869526E-1,-3.1802163E-2,-9.9338734E-1,7.7893573E-1,5.4982502E-2,5.1087964E-2,4.986877E-3,8.422921E-1,-2.3130673E-1,1.1967132E0,-2.9110572E-1,-1.2371571E0,-4.0918153E-2,6.1512357E-1,-9.813976E-1,-3.0704832E-1,4.0119592E-2,-1.0918019E0,1.9041287E-2,5.5005604E-1,1.2300985E0,9.2301446E-1,-1.110156E-1,-1.28218625E-2,3.2396283E-2,-1.697867E-2,-3.642187E-3,3.9649572E-2,-1.1181999E-3,-2.0463191E-2,1.5643748E-2,9.264682E-3,-4.377425E-2,1.1564532E-2,-3.9222583E-2,3.508207E-2,-1.45347295E-2,-3.9399505E-2,5.469635E-3,-4.5273714E-2,-8.775765E-5,-1.5748087E-3,-3.8868487E-2,2.8060375E-2,6.2725097E-3,4.5377843E-2,8.905129E-3,4.1728687E-2,-8.400237E-3,-6.8883193E-3,2.9961484E-2],"categories":[],"categories_nodes":[],"categories_segments":[],"categories_sizes":[],"default_left":[0,0,0,0,0,0,0,0,0,0,0,0,0,0,0,0,0,0,0,0,0,0,0,0,0,0,0,0,0,0,0,0,0,0,0,0,0,0,0,0,0,0,0,0,0,0,0,0,0,0,0,0,0,0,0,0,0,0,0,0,0,0,0,0,0,0,0,0,0,0,0],"id":4,"left_children":[1,3,5,-1,7,9,11,13,15,17,19,21,23,-1,-1,25,-1,27,29,31,33,35,37,39,41,-1,-1,43,45,47,49,51,53,55,57,59,-1,61,-1,63,65,67,69,-1,-1,-1,-1,-1,-1,-1,-1,-1,-1,-1,-1,-1,-1,-1,-1,-1,-1,-1,-1,-1,-1,-1,-1,-1,-1,-1,-1],"loss_changes":[3.5072884E1,1.7121544E1,1.9762676E1,0E0,2.8942184E0,2.3172417E1,3.9701042E1,2.8811522E0,2.5007896E0,2.8534613E1,1.56592865E1,1.3802212E1,2.3490353E1,0E0,0E0,1.935791E0,0E0,1.8182785E1,5.004102E1,1.2657608E1,1.1228662E1,1.2338093E1,5.447851E0,8.901985E0,1.2745559E1,0E0,0E0,5.501663E0,1.3167795E1,7.0361366E0,1.5038109E1,1.4151184E1,7.457828E0,8.993576E0,2.8561606E0,9.881202E0,0E0,5.7580795E0,0E0,8.181932E0,7.5019455E0,8.494102E0,9.888864E0,0E0,0E0,0E0,0E0,0E0,0E0,0E0,0E0,0E0,0E0,0E0,0E0,0E0,0E0,0E0,0E0,0E0,0E0,0E0,0E0,0E0,0E0,0E0,0E0,0E0,0E0,0E0,0E0],"parents":[2147483647,0,0,1,1,2,2,4,4,5,5,6,6,7,7,8,8,9,9,10,10,11,11,12,12,15,15,17,17,18,18,19,19,20,20,21,21,22,22,23,23,24,24,27,27,28,28,29,29,30,30,31,31,32,32,33,33,34,34,35,35,37,37,39,39,40,40,41,41,42,42],"right_children":[2,4,6,-1,8,10,12,14,16,18,20,22,24,-1,-1,26,-1,28,30,32,34,36,38,40,42,-1,-1,44,46,48,50,52,54,56,58,60,-1,62,-1,64,66,68,70,-1,-1,-1,-1,-1,-1,-1,-1,-1,-1,-1,-1,-1,-1,-1,-1,-1,-1,-1,-1,-1,-1,-1,-1,-1,-1,-1,-1],"split_conditions":[3.7206978E-1,2.3458052E-1,5.927181E-1,-3.0747982E-2,4.2960998E-1,6.163072E-1,4.4722217E-1,3.2103738E-1,5.98953E-1,6.4998865E-1,4.506506E-1,3.1539506E-1,5.5207634E-1,3.0295027E-2,-1.7784992E-2,6.7824686E-1,-0E0,2.4179627E-1,4.9195817E-1,5.527018E-1,5.828415E-1,6.7506844E-1,6.9974214E-1,5.159081E-1,6.0730994E-1,5.1087964E-2,4.986877E-3,2.6196745E-1,4.3996313E-1,6.1738497E-1,5.857031E-1,4.913635E-1,5.5852646E-1,6.7465216E-1,7.8291476E-1,3.0153006E-1,4.0119592E-2,3.7045428E-1,1.9041287E-2,3.559186E-1,5.3571135E-1,3.9401776E-1,7.392131E-1,-1.28218625E-2,3.2396283E-2,-1.697867E-2,-3.642187E-3,3.9649572E-2,-1.1181999E-3,-2.0463191E-2,1.5643748E-2,9.264682E-3,-4.377425E-2,1.1564532E-2,-3.9222583E-2,3.508207E-2,-1.45347295E-2,-3.9399505E-2,5.469635E-3,-4.5273714E-2,-8.775765E-5,-1.5748087E-3,-3.8868487E-2,2.8060375E-2,6.2725097E-3,4.5377843E-2,8.905129E-3,4.1728687E-2,-8.400237E-3,-6.8883193E-3,2.9961484E-2],"split_indices":[4,2,3,0,0,0,0,3,5,4,2,2,1,0,0,0,0,6,0,3,4,4,1,5,3,0,0,2,7,5,1,4,6,0,4,0,0,1,0,5,6,5,4,0,0,0,0,0,0,0,0,0,0,0,0,0,0,0,0,0,0,0,0,0,0,0,0,0,0,0,0],"split_type":[0,0,0,0,0,0,0,0,0,0,0,0,0,0,0,0,0,0,0,0,0,0,0,0,0,0,0,0,0,0,0,0,0,0,0,0,0,0,0,0,0,0,0,0,0,0,0,0,0,0,0,0,0,0,0,0,0,0,0,0,0,0,0,0,0,0,0,0,0,0,0],"sum_hessian":[7.973991E2,2.5022253E1,7.7237683E2,2.4895377E0,2.2532715E1,5.3339825E2,2.3897859E2,2.494636E0,2.0038078E1,4.6491013E2,6.848814E1,5.9314556E1,1.7966403E2,1.2460276E0,1.2486086E0,1.9038078E1,1E0,3.7626266E2,8.864748E1,5.0292564E1,1.819557E1,3.0924217E1,2.8390339E1,9.348418E1,8.617985E1,1.7788214E1,1.2498647E0,1.549181E1,3.6077084E2,4.3485207E1,4.5162266E1,3.8586742E1,1.1705822E1,1.2713894E1,5.481675E0,2.6454597E1,4.4696183E0,2.714058E1,1.2497607E0,6.3639847E1,2.9844332E1,1.3199495E1,7.2980354E1,2.249626E0,1.3242184E1,8.793811E1,2.7283273E2,3.949626E1,3.988943E0,3.0681932E1,1.4480334E1,4.7392497E0,3.3847492E1,9.218749E0,2.4870734E0,8.471282E0,4.2426124E0,4.2319937E0,1.2496818E0,4.475142E0,2.1979456E1,4.7364182E0,2.2404161E1,2.892214E1,3.4717705E1,2.2350857E1,7.493475E0,9.450444E0,3.749051E0,6.6732025E1,6.2483273E0],"tree_param":{"num_deleted":"0","num_feature":"9","num_nodes":"71","size_leaf_vector":"1"}},{"base_weights":[5.0698715E-4,1.1147405E0,-3.6715318E-2,-3.0138373E-2,1.3866917E0,-7.516786E-1,-2.3185012E-3,2.3471613E-1,1.5078495E0,-5.2296948E-2,-9.647682E-2,-1.20316856E-1,2.6651707E-1,2.9979428E-2,-1.7655991E-2,1.583513E0,-0E0,1.0965813E0,-5.0542563E-1,1.8768957E-1,-3.0378366E-1,-2.6502028E-1,4.6067005E-1,4.9932726E-2,4.9039256E-3,4.3407146E-2,-0E0,-7.8478026E-1,3.705486E-2,-7.738779E-2,1.1366719E0,5.704599E-1,-4.6349156E-1,-4.4983503E-1,1.2777331E0,7.515285E-1,7.7113286E-2,1.2965485E-2,-3.08054E-2,2.7470607E-3,-3.3602342E-2,3.7886996E-2,-1.0913403E-3,3.455412E-2,5.7590283E-3,-3.1466268E-2,-9.98293E-3,1.7223364E-2,-1.7293504E-2,4.4333536E-2,5.3607146E-3,1.6389921E-2,4.0569734E-2,2.6906656E-2,-3.031237E-3],"categories":[],"categories_nodes":[],"categories_segments":[],"categories_sizes":[],"default_left":[0,0,0,0,0,0,0,0,0,0,0,0,0,0,0,0,0,0,0,0,0,0,0,0,0,0,0,0,0,0,0,0,0,0,0,0,0,0,0,0,0,0,0,0,0,0,0,0,0,0,0,0,0,0,0],"id":5,"left_children":[1,3,5,-1,7,9,11,13,15,-1,17,19,21,-1,-1,23,-1,25,27,29,31,33,35,-1,-1,-1,-1,37,-1,39,41,43,45,47,49,51,53,-1,-1,-1,-1,-1,-1,-1,-1,-1,-1,-1,-1,-1,-1,-1,-1,-1,-1],"loss_changes":[3.3230984E1,1.6361347E1,1.892673E1,0E0,2.740574E0,2.26032E1,2.3441656E1,2.8270564E0,2.3876991E0,0E0,1.142155E1,2.9121078E1,2.3392178E1,0E0,0E0,1.834858E0,0E0,2.190125E0,9.397025E0,4.8576717E1,4.5322163E1,1.7819925E1,1.8325085E1,0E0,0E0,0E0,0E0,5.12121E0,0E0,2.684138E1,6.408436E0,1.0692469E1,2.0448318E1,7.4707737E0,1.0442705E0,1.0644367E1,1.0780304E1,0E0,0E0,0E0,0E0,0E0,0E0,0E0,0E0,0E0,0E0,0E0,0E0,0E0,0E0,0E0,0E0,0E0,0E0],"parents":[2147483647,0,0,1,1,2,2,4,4,5,5,6,6,7,7,8,8,10,10,11,11,12,12,15,15,17,17,18,18,19,19,20,20,21,21,22,22,27,27,29,29,30,30,31,31,32,32,33,33,34,34,35,35,36,36],"right_children":[2,4,6,-1,8,10,12,14,16,-1,18,20,22,-1,-1,24,-1,26,28,30,32,34,36,-1,-1,-1,-1,38,-1,40,42,44,46,48,50,52,54,-1,-1,-1,-1,-1,-1,-1,-1,-1,-1,-1,-1,-1,-1,-1,-1,-1,-1],"split_conditions":[3.7206978E-1,2.3458052E-1,3.2815778E-1,-3.0138373E-2,4.2960998E-1,5.594695E-1,5.927181E-1,3.6779523E-1,5.98953E-1,-5.2296948E-2,3.318451E-1,4.9508888E-1,4.706636E-1,2.9979428E-2,-1.7655991E-2,6.7824686E-1,-0E0,5.8373785E-1,6.9974214E-1,6.4659774E-1,4.913635E-1,7.259676E-1,5.670061E-1,4.9932726E-2,4.9039256E-3,4.3407146E-2,-0E0,3.741898E-1,3.705486E-2,5.599289E-1,6.1738497E-1,5.3439784E-1,2.1770631E-1,4.165049E-1,3.422415E-1,5.4162365E-1,6.0730994E-1,1.2965485E-2,-3.08054E-2,2.7470607E-3,-3.3602342E-2,3.7886996E-2,-1.0913403E-3,3.455412E-2,5.7590283E-3,-3.1466268E-2,-9.98293E-3,1.7223364E-2,-1.7293504E-2,4.4333536E-2,5.3607146E-3,1.6389921E-2,4.0569734E-2,2.6906656E-2,-3.031237E-3],"split_indices":[4,2,0,0,0,4,3,0,5,0,8,0,0,0,0,0,0,3,1,4,4,4,1,0,0,0,0,7,0,3,5,1,2,4,2,5,3,0,0,0,0,0,0,0,0,0,0,0,0,0,0,0,0,0,0],"split_type":[0,0,0,0,0,0,0,0,0,0,0,0,0,0,0,0,0,0,0,0,0,0,0,0,0,0,0,0,0,0,0,0,0,0,0,0,0,0,0,0,0,0,0,0,0,0,0,0,0,0,0,0,0,0,0],"sum_hessian":[7.96656E2,2.4904001E1,7.71752E2,2.4840062E0,2.2419994E1,3.4334003E1,7.37418E2,2.4916704E0,1.9928324E1,1.2939186E1,2.1394815E1,5.131213E2,2.2429677E2,1.2439486E0,1.2477219E0,1.8928324E1,1E0,4.969861E0,1.6424955E1,1.9133594E2,3.2178534E2,5.977346E1,1.645233E2,1.7678532E1,1.2497921E0,3.4751265E0,1.4947345E0,1.4676104E1,1.7488519E0,1.5019527E2,4.114067E1,4.921015E1,2.7257516E2,5.4069427E1,5.70403E0,9.287462E1,7.164868E1,2.2360578E0,1.2440045E1,1.2995393E2,2.024133E1,3.715157E1,3.989101E0,1.8495184E1,3.0714966E1,4.8337254E1,2.2423792E2,5.474286E0,4.8595142E1,4.457128E0,1.2469018E0,7.077701E1,2.209761E1,1.2171E1,5.9477684E1],"tree_param":{"num_deleted":"0","num_feature":"9","num_nodes":"55","size_leaf_vector":"1"}},{"base_weights":[7.493911E-4,1.0886585E0,-3.542339E-2,-2.9550023E-2,1.3558505E0,-7.303271E-1,-2.042178E-3,2.3057826E-1,1.4745722E0,-5.102728E-2,-9.041758E-2,-1.16757415E-1,2.5938892E-1,2.9515855E-2,-1.7368047E-2,1.5490457E0,-0E0,1.073277E0,-4.8940846E-1,1.8222871E-1,-2.9480124E-1,-2.5631285E-1,4.477925E-1,4.885552E-2,4.8223897E-3,4.2499162E-2,-0E0,-7.631679E-1,3.635679E-2,-7.525798E-2,1.1070762E0,5.5433923E-1,-4.4997516E-1,-4.3652615E-1,1.2511408E0,7.3066616E-1,7.511682E-2,1.2697083E-2,-2.9994717E-2,2.6651942E-3,-3.2666538E-2,3.691647E-2,-1.0651317E-3,3.3593725E-2,5.5913925E-3,-3.058966E-2,-9.68728E-3,1.6791595E-2,-1.6794696E-2,4.3412205E-2,5.2714823E-3,1.5918406E-2,3.953115E-2,2.6207818E-2,-2.941871E-3],"categories":[],"categories_nodes":[],"categories_segments":[],"categories_sizes":[],"default_left":[0,0,0,0,0,0,0,0,0,0,0,0,0,0,0,0,0,0,0,0,0,0,0,0,0,0,0,0,0,0,0,0,0,0,0,0,0,0,0,0,0,0,0,0,0,0,0,0,0,0,0,0,0,0,0],"id":6,"left_children":[1,3,5,-1,7,9,11,13,15,-1,17,19,21,-1,-1,23,-1,25,27,29,31,33,35,-1,-1,-1,-1,37,-1,39,41,43,45,47,49,51,53,-1,-1,-1,-1,-1,-1,-1,-1,-1,-1,-1,-1,-1,-1,-1,-1,-1,-1],"loss_changes":[3.1505375E1,1.5648462E1,1.7837044E1,0E0,2.6006546E0,2.1561865E1,2.2146202E1,2.7372081E0,2.2841797E0,0E0,1.0850369E1,2.7417242E1,2.2003708E1,0E0,0E0,1.7438278E0,0E0,2.0949922E0,8.986073E0,4.595274E1,4.275145E1,1.6960983E1,1.729755E1,0E0,0E0,0E0,0E0,4.876625E0,0E0,2.5343657E1,6.0887413E0,1.0105174E1,1.9330029E1,7.0741167E0,9.917517E-1,1.0125027E1,1.0205645E1,0E0,0E0,0E0,0E0,0E0,0E0,0E0,0E0,0E0,0E0,0E0,0E0,0E0,0E0,0E0,0E0,0E0,0E0],"parents":[2147483647,0,0,1,1,2,2,4,4,5,5,6,6,7,7,8,8,10,10,11,11,12,12,15,15,17,17,18,18,19,19,20,20,21,21,22,22,27,27,29,29,30,30,31,31,32,32,33,33,34,34,35,35,36,36],"right_children":[2,4,6,-1,8,10,12,14,16,-1,18,20,22,-1,-1,24,-1,26,28,30,32,34,36,-1,-1,-1,-1,38,-1,40,42,44,46,48,50,52,54,-1,-1,-1,-1,-1,-1,-1,-1,-1,-1,-1,-1,-1,-1,-1,-1,-1,-1],"split_conditions":[3.7206978E-1,2.3458052E-1,3.2815778E-1,-2.9550023E-2,4.2960998E-1,5.594695E-1,5.927181E-1,3.6779523E-1,5.98953E-1,-5.102728E-2,3.318451E-1,4.9508888E-1,4.706636E-1,2.9515855E-2,-1.7368047E-2,6.7824686E-1,-0E0,5.8373785E-1,6.9974214E-1,6.4659774E-1,4.913635E-1,7.259676E-1,5.670061E-1,4.885552E-2,4.8223897E-3,4.2499162E-2,-0E0,3.741898E-1,3.635679E-2,5.599289E-1,6.1738497E-1,5.3439784E-1,2.1770631E-1,4.165049E-1,3.422415E-1,5.4162365E-1,6.0730994E-1,1.2697083E-2,-2.9994717E-2,2.6651942E-3,-3.2666538E-2,3.691647E-2,-1.0651317E-3,3.3593725E-2,5.5913925E-3,-3.058966E-2,-9.68728E-3,1.6791595E-2,-1.6794696E-2,4.3412205E-2,5.2714823E-3,1.5918406E-2,3.953115E-2,2.6207818E-2,-2.941871E-3],"split_indices":[4,2,0,0,0,4,3,0,5,0,8,0,0,0,0,0,0,3,1,4,4,4,1,0,0,0,0,7,0,3,5,1,2,4,2,5,3,0,0,0,0,0,0,0,0,0,0,0,0,0,0,0,0,0,0],"split_type":[0,0,0,0,0,0,0,0,0,0,0,0,0,0,0,0,0,0,0,0,0,0,0,0,0,0,0,0,0,0,0,0,0,0,0,0,0,0,0,0,0,0,0,0,0,0,0,0,0,0,0,0,0,0,0],"sum_hessian":[7.959336E2,2.4765676E1,7.711679E2,2.4774668E0,2.228821E1,3.425249E1,7.369154E2,2.4882717E0,1.9799938E1,1.2888919E1,2.1363573E1,5.1282513E2,2.2409032E2,1.2413257E0,1.2469459E0,1.8799938E1,1E0,4.9591455E0,1.6404428E1,1.911854E2,3.216397E2,5.9723316E1,1.64367E2,1.7550234E1,1.2497056E0,3.4644113E0,1.4947345E0,1.4656262E1,1.7481657E0,1.5018335E2,4.1002033E1,4.9198666E1,2.7244104E2,5.4039726E1,5.6835904E0,9.2742966E1,7.162404E1,2.2359648E0,1.2420297E1,1.2995793E2,2.0225416E1,3.7012783E1,3.9892526E0,1.848198E1,3.0716688E1,4.8260555E1,2.241805E2,5.4723377E0,4.8567387E1,4.436695E0,1.2468956E0,7.07178E1,2.2025167E1,1.2147689E1,5.947635E1],"tree_param":{"num_deleted":"0","num_feature":"9","num_nodes":"55","size_leaf_vector":"1"}},{"base_weights":[9.811088E-4,1.0640119E0,-3.4178693E-2,-2.8981674E-2,1.3267859E0,-7.1007055E-1,-1.777715E-3,2.2655801E-1,1.4433031E0,-4.984557E-2,-8.4609516E-2,-1.1331868E-1,2.5249812E-1,2.9218696E-2,-1.72433E-2,1.516736E0,-0E0,1.0510073E0,-4.7403753E-1,1.7695767E-1,-2.861202E-1,-2.479167E-1,4.3534824E-1,4.8151225E-2,6.3076373E-3,4.163808E-2,-0E0,-7.423969E-1,3.5687137E-2,-7.319267E-2,1.0788149E0,5.387948E-1,-4.369017E-1,-4.2366147E-1,1.2258319E0,7.1056026E-1,7.317568E-2,1.2434933E-2,-2.9216683E-2,-1.0191521E-2,1.5822513E-2,5.802985E-3,3.755783E-2,3.349005E-2,5.570295E-3,-2.975013E-2,-9.400763E-3,1.637253E-2,-1.631232E-2,4.2540416E-2,5.183777E-3,1.5462062E-2,3.8545378E-2,1.3614933E-2,-8.37544E-3],"categories":[],"categories_nodes":[],"categories_segments":[],"categories_sizes":[],"default_left":[0,0,0,0,0,0,0,0,0,0,0,0,0,0,0,0,0,0,0,0,0,0,0,0,0,0,0,0,0,0,0,0,0,0,0,0,0,0,0,0,0,0,0,0,0,0,0,0,0,0,0,0,0,0,0],"id":7,"left_children":[1,3,5,-1,7,9,11,13,15,-1,17,19,21,-1,-1,23,-1,25,27,29,31,33,35,-1,-1,-1,-1,37,-1,39,41,43,45,47,49,51,53,-1,-1,-1,-1,-1,-1,-1,-1,-1,-1,-1,-1,-1,-1,-1,-1,-1,-1],"loss_changes":[2.9892834E1,1.4978874E1,1.6821981E1,0E0,2.4723282E0,2.0600245E1,2.0926243E1,2.686472E0,2.1891098E0,0E0,1.0312722E1,2.581664E1,2.0700415E1,0E0,0E0,1.7485466E0,0E0,2.006382E0,8.596532E0,4.349533E1,4.0332664E1,1.6150988E1,1.6334286E1,0E0,0E0,0E0,0E0,4.6458483E0,0E0,2.4357758E1,6.026516E0,9.8955145E0,1.8288593E1,6.6994467E0,9.4361687E-1,9.646893E0,9.881176E0,0E0,0E0,0E0,0E0,0E0,0E0,0E0,0E0,0E0,0E0,0E0,0E0,0E0,0E0,0E0,0E0,0E0,0E0],"parents":[2147483647,0,0,1,1,2,2,4,4,5,5,6,6,7,7,8,8,10,10,11,11,12,12,15,15,17,17,18,18,19,19,20,20,21,21,22,22,27,27,29,29,30,30,31,31,32,32,33,33,34,34,35,35,36,36],"right_children":[2,4,6,-1,8,10,12,14,16,-1,18,20,22,-1,-1,24,-1,26,28,30,32,34,36,-1,-1,-1,-1,38,-1,40,42,44,46,48,50,52,54,-1,-1,-1,-1,-1,-1,-1,-1,-1,-1,-1,-1,-1,-1,-1,-1,-1,-1],"split_conditions":[3.7206978E-1,2.3458052E-1,3.2815778E-1,-2.8981674E-2,4.2960998E-1,5.594695E-1,5.927181E-1,3.2103738E-1,5.98953E-1,-4.984557E-2,3.318451E-1,4.9508888E-1,4.706636E-1,2.9218696E-2,-1.72433E-2,6.473215E-1,-0E0,5.8373785E-1,6.9974214E-1,6.4659774E-1,4.913635E-1,7.259676E-1,5.670061E-1,4.8151225E-2,6.3076373E-3,4.163808E-2,-0E0,3.741898E-1,3.5687137E-2,5.879739E-1,4.025874E-1,5.181116E-1,2.1770631E-1,4.165049E-1,3.422415E-1,5.4162365E-1,2.8995892E-1,1.2434933E-2,-2.9216683E-2,-1.0191521E-2,1.5822513E-2,5.802985E-3,3.755783E-2,3.349005E-2,5.570295E-3,-2.975013E-2,-9.400763E-3,1.637253E-2,-1.631232E-2,4.2540416E-2,5.183777E-3,1.5462062E-2,3.8545378E-2,1.3614933E-2,-8.37544E-3],"split_indices":[4,2,0,0,0,4,3,3,5,0,8,0,0,0,0,6,0,3,1,4,4,4,1,0,0,0,0,7,0,1,1,7,2,4,2,5,2,0,0,0,0,0,0,0,0,0,0,0,0,0,0,0,0,0,0],"split_type":[0,0,0,0,0,0,0,0,0,0,0,0,0,0,0,0,0,0,0,0,0,0,0,0,0,0,0,0,0,0,0,0,0,0,0,0,0,0,0,0,0,0,0,0,0,0,0,0,0,0,0,0,0,0,0],"sum_hessian":[7.9505963E2,2.4608921E1,7.704507E2,2.4699924E0,2.2138927E1,3.414645E1,7.3630426E2,2.484204E0,1.9654724E1,1.282332E1,2.1323128E1,5.1245685E2,2.2384738E2,1.2384682E0,1.2457358E0,1.8654724E1,1E0,4.945589E0,1.6377539E1,1.9100279E2,3.2145407E2,5.966274E1,1.6418465E2,1.7187931E1,1.4667933E0,3.4508543E0,1.4947345E0,1.4631209E1,1.74633E0,1.5016039E2,4.0842396E1,4.917647E1,2.722776E2,5.4003227E1,5.659512E0,9.2588974E1,7.1595665E1,2.2356954E0,1.2395514E1,1.044229E2,4.5737495E1,7.1203775E0,3.372202E1,1.7731419E1,3.1445051E1,4.816343E1,2.2411417E2,5.4696684E0,4.8533558E1,4.41264E0,1.2468722E0,7.0651306E1,2.1937672E1,3.4413822E1,3.718184E1],"tree_param":{"num_deleted":"0","num_feature":"9","num_nodes":"55","size_leaf_vector":"1"}},{"base_weights":[1.2453014E-3,1.040495E0,-3.2934085E-2,-2.8432148E-2,1.2990727E0,-6.908126E-1,-1.4806066E-3,2.2263391E-1,1.4135432E0,-4.874301E-2,-7.903483E-2,-1.0988854E-1,2.4572584E-1,2.8778499E-2,-1.6964233E-2,1.4860322E0,-0E0,1.029697E0,-4.5926893E-1,1.7210196E-1,-2.7771038E-1,-2.3981549E-1,4.2314315E-1,4.694606E-2,4.221179E-3,4.0820163E-2,-0E0,-7.2241044E-1,3.5044115E-2,-7.095198E-2,1.0517179E0,2.7138564E-1,-4.9368218E-1,-4.1122013E-1,1.2017053E0,6.911649E-1,7.10185E-2,8.332443E-3,-2.96667E-2,2.637796E-3,-3.162008E-2,8.305784E-3,3.7462633E-2,-3.0934291E-2,1.3724839E-2,-6.381231E-3,-2.226297E-2,1.596562E-2,-1.58456E-2,4.1714087E-2,5.097568E-3,1.5020215E-2,3.760772E-2,2.5440846E-2,-2.9107046E-3],"categories":[],"categories_nodes":[],"categories_segments":[],"categories_sizes":[],"default_left":[0,0,0,0,0,0,0,0,0,0,0,0,0,0,0,0,0,0,0,0,0,0,0,0,0,0,0,0,0,0,0,0,0,0,0,0,0,0,0,0,0,0,0,0,0,0,0,0,0,0,0,0,0,0,0],"id":8,"left_children":[1,3,5,-1,7,9,11,13,15,-1,17,19,21,-1,-1,23,-1,25,27,29,31,33,35,-1,-1,-1,-1,37,-1,39,41,43,45,47,49,51,53,-1,-1,-1,-1,-1,-1,-1,-1,-1,-1,-1,-1,-1,-1,-1,-1,-1,-1],"loss_changes":[2.8378412E1,1.4346113E1,1.5877063E1,0E0,2.3532715E0,1.970954E1,1.9755281E1,2.6020296E0,2.1005707E0,0E0,9.806183E0,2.4338682E1,1.946732E1,0E0,0E0,1.6774483E0,0E0,1.9236751E0,8.2270155E0,4.118176E1,3.8371395E1,1.5386559E1,1.5447266E1,0E0,0E0,0E0,0E0,4.503892E0,0E0,2.3794556E1,5.865177E0,2.2590834E1,1.5923649E1,6.345434E0,8.993912E-1,9.205128E0,9.635335E0,0E0,0E0,0E0,0E0,0E0,0E0,0E0,0E0,0E0,0E0,0E0,0E0,0E0,0E0,0E0,0E0,0E0,0E0],"parents":[2147483647,0,0,1,1,2,2,4,4,5,5,6,6,7,7,8,8,10,10,11,11,12,12,15,15,17,17,18,18,19,19,20,20,21,21,22,22,27,27,29,29,30,30,31,31,32,32,33,33,34,34,35,35,36,36],"right_children":[2,4,6,-1,8,10,12,14,16,-1,18,20,22,-1,-1,24,-1,26,28,30,32,34,36,-1,-1,-1,-1,38,-1,40,42,44,46,48,50,52,54,-1,-1,-1,-1,-1,-1,-1,-1,-1,-1,-1,-1,-1,-1,-1,-1,-1,-1],"split_conditions":[3.7206978E-1,2.3458052E-1,3.2815778E-1,-2.8432148E-2,4.2960998E-1,5.594695E-1,5.927181E-1,3.2103738E-1,5.98953E-1,-4.874301E-2,3.318451E-1,4.9508888E-1,4.706636E-1,2.8778499E-2,-1.6964233E-2,6.7824686E-1,-0E0,5.8373785E-1,6.9974214E-1,6.4659774E-1,5.4649585E-1,7.259676E-1,5.670061E-1,4.694606E-2,4.221179E-3,4.0820163E-2,-0E0,4.7913224E-1,3.5044115E-2,5.599289E-1,3.7414202E-1,2.2359529E-1,4.0793785E-1,4.165049E-1,3.422415E-1,5.4162365E-1,6.0730994E-1,8.332443E-3,-2.96667E-2,2.637796E-3,-3.162008E-2,8.305784E-3,3.7462633E-2,-3.0934291E-2,1.3724839E-2,-6.381231E-3,-2.226297E-2,1.596562E-2,-1.58456E-2,4.1714087E-2,5.097568E-3,1.5020215E-2,3.760772E-2,2.5440846E-2,-2.9107046E-3],"split_indices":[4,2,0,0,0,4,3,3,5,0,8,0,0,0,0,0,0,3,1,4,4,4,1,0,0,0,0,3,0,3,6,2,5,4,2,5,3,0,0,0,0,0,0,0,0,0,0,0,0,0,0,0,0,0,0],"split_type":[0,0,0,0,0,0,0,0,0,0,0,0,0,0,0,0,0,0,0,0,0,0,0,0,0,0,0,0,0,0,0,0,0,0,0,0,0,0,0,0,0,0,0,0,0,0,0,0,0,0,0,0,0,0,0],"sum_hessian":[7.9411993E2,2.4441498E1,7.696784E2,2.4616518E0,2.1979847E1,3.4018013E1,7.356604E2,2.4797435E0,1.9500103E1,1.2743781E1,2.1274233E1,5.1206396E2,2.2359644E2,1.2350366E0,1.244707E0,1.8500103E1,1E0,4.9294114E0,1.634482E1,1.9081567E2,3.2124832E2,5.959267E1,1.6400375E2,1.7251633E1,1.2484703E0,3.434677E0,1.4947345E0,1.4601408E1,1.743413E0,1.50136E2,4.0679672E1,9.0482376E1,2.3076593E2,5.3960567E1,5.632101E0,9.2414825E1,7.1588936E1,2.9840474E0,1.161736E1,1.2994363E2,2.0192373E1,8.837664E0,3.1842007E1,1.0677247E1,7.980513E1,1.0934684E2,1.214191E2,5.466336E0,4.8494232E1,4.3852687E0,1.2468324E0,7.057828E1,2.1836546E1,1.2115699E1,5.9473236E1],"tree_param":{"num_deleted":"0","num_feature":"9","num_nodes":"55","size_leaf_vector":"1"}},{"base_weights":[1.4061312E-3,1.0183043E0,-3.1825848E-2,-2.790037E-2,1.273039E0,1.1954376E0,-4.8256397E-2,2.188194E-1,1.3857007E0,-6.4955004E-3,4.2822618E-2,-6.889307E-1,-1.7534088E-2,2.8500846E-2,-1.6846212E-2,1.4573997E0,-0E0,-4.7711924E-2,-9.316471E-2,-1.1619794E-1,2.0974784E-1,4.6342358E-2,5.6436146E-3,9.8061866E-1,-4.4524255E-1,-3.2968216E-2,-6.472795E-1,1.10026754E-1,1.1103464E0,3.943838E-2,-0E0,-2.1098569E-2,3.442608E-2,-5.0683036E-3,7.0428513E-3,-2.786812E-2,3.694678E-3,-1.3802724E-2,9.204757E-3,4.0973358E-2,7.9615007E-4],"categories":[],"categories_nodes":[],"categories_segments":[],"categories_sizes":[],"default_left":[0,0,0,0,0,0,0,0,0,0,0,0,0,0,0,0,0,0,0,0,0,0,0,0,0,0,0,0,0,0,0,0,0,0,0,0,0,0,0,0,0],"id":9,"left_children":[1,3,5,-1,7,9,11,13,15,-1,-1,17,19,-1,-1,21,-1,-1,23,25,27,-1,-1,29,31,33,35,37,39,-1,-1,-1,-1,-1,-1,-1,-1,-1,-1,-1,-1],"loss_changes":[2.6964937E1,1.3751802E1,1.5465681E1,0E0,2.2444458E0,3.7476673E0,1.48895645E1,2.5549989E0,2.0195198E0,0E0,0E0,1.8283237E1,1.6318512E1,0E0,0E0,1.6787796E0,0E0,0E0,8.69302E0,2.2361355E1,1.952489E1,0E0,0E0,1.763134E0,7.8775682E0,1.6062637E1,1.5080727E1,2.2497108E1,5.8413734E0,0E0,0E0,0E0,0E0,0E0,0E0,0E0,0E0,0E0,0E0,0E0,0E0],"parents":[2147483647,0,0,1,1,2,2,4,4,5,5,6,6,7,7,8,8,11,11,12,12,15,15,18,18,19,19,20,20,23,23,24,24,25,25,26,26,27,27,28,28],"right_children":[2,4,6,-1,8,10,12,14,16,-1,-1,18,20,-1,-1,22,-1,-1,24,26,28,-1,-1,30,32,34,36,38,40,-1,-1,-1,-1,-1,-1,-1,-1,-1,-1,-1,-1],"split_conditions":[3.7206978E-1,2.3458052E-1,2.352897E-1,-2.790037E-2,4.2960998E-1,2.7279848E-1,3.2815778E-1,3.6779523E-1,5.98953E-1,-6.4955004E-3,4.2822618E-2,5.594695E-1,5.927181E-1,2.8500846E-2,-1.6846212E-2,6.473215E-1,-0E0,-4.7711924E-2,3.318451E-1,6.163072E-1,7.2835326E-1,4.6342358E-2,5.6436146E-3,5.8373785E-1,6.9974214E-1,5.88754E-1,4.506506E-1,4.6779913E-1,3.6472678E-1,3.943838E-2,-0E0,-2.1098569E-2,3.442608E-2,-5.0683036E-3,7.0428513E-3,-2.786812E-2,3.694678E-3,-1.3802724E-2,9.204757E-3,4.0973358E-2,7.9615007E-4],"split_indices":[4,2,1,0,0,6,0,0,5,0,0,4,3,0,0,6,0,0,8,0,4,0,0,3,1,1,2,0,2,0,0,0,0,0,0,0,0,0,0,0,0],"split_type":[0,0,0,0,0,0,0,0,0,0,0,0,0,0,0,0,0,0,0,0,0,0,0,0,0,0,0,0,0,0,0,0,0,0,0,0,0,0,0,0,0],"sum_hessian":[7.930535E2,2.4253815E1,7.687997E2,2.452511E0,2.1801304E1,9.128286E0,7.596714E2,2.4746764E0,1.9326628E1,1.2367107E0,7.891576E0,3.363236E1,7.2603906E2,1.231482E0,1.2431943E0,1.8326628E1,1E0,1.2651595E1,2.0980762E1,5.069145E2,2.1912457E2,1.6869911E1,1.4567158E0,4.6696835E0,1.6311079E1,4.393163E2,6.759815E1,1.9839049E2,2.0734085E1,3.1749492E0,1.4947345E0,1.4571598E1,1.7394803E0,2.9183902E2,1.4747731E2,4.9445717E1,1.8152435E1,5.043532E1,1.4795517E2,1.6494276E1,4.239809E0],"tree_param":{"num_deleted":"0","num_feature":"9","num_nodes":"41","size_leaf_vector":"1"}},{"base_weights":[1.4941468E-3,9.97046E-1,-3.0807765E-2,-2.7385324E-2,1.2481105E0,1.1661822E0,-4.6802897E-2,2.1509473E-1,1.3590822E0,-6.387025E-3,4.1818712E-2,1.9692071E-1,-1.2402899E-1,2.8082078E-2,-1.6575573E-2,1.4300658E0,-0E0,2.865127E-1,-6.2745106E-1,9.63622E-1,-1.5363544E-1,4.526282E-2,3.6544814E-3,-0E0,4.6474177E-1,-1.0118263E0,3.78015E-2,-1.4748529E-1,1.4759963E0,-5.7690597E-1,-8.0414675E-2,-1.0720947E-2,1.8255193E-2,4.5902364E-2,1.0447825E-2,2.3600983E-2,-3.893384E-2,-3.0596849E-2,2.8564563E-2,4.8440672E-2,5.768994E-3,-2.5188543E-2,1.4812726E-3,-3.2893224E-3,2.9428866E-2],"categories":[],"categories_nodes":[],"categories_segments":[],"categories_sizes":[],"default_left":[0,0,0,0,0,0,0,0,0,0,0,0,0,0,0,0,0,0,0,0,0,0,0,0,0,0,0,0,0,0,0,0,0,0,0,0,0,0,0,0,0,0,0,0,0],"id":10,"left_children":[1,3,5,-1,7,9,11,13,15,-1,-1,17,19,-1,-1,21,-1,23,25,27,29,-1,-1,31,33,35,-1,37,39,41,43,-1,-1,-1,-1,-1,-1,-1,-1,-1,-1,-1,-1,-1,-1],"loss_changes":[2.5638868E1,1.3188477E1,1.4670794E1,0E0,2.1428146E0,3.5874949E0,1.4324621E1,2.475543E0,1.9435768E0,0E0,0E0,1.3660145E1,1.8685081E1,0E0,0E0,1.6243286E0,0E0,8.441222E0,1.4411547E1,9.100233E0,1.7361395E1,0E0,0E0,1.4307674E1,1.195071E1,9.131681E0,0E0,6.4442463E0,1.4086666E0,1.3741156E1,1.49743185E1,0E0,0E0,0E0,0E0,0E0,0E0,0E0,0E0,0E0,0E0,0E0,0E0,0E0,0E0],"parents":[2147483647,0,0,1,1,2,2,4,4,5,5,6,6,7,7,8,8,11,11,12,12,15,15,17,17,18,18,19,19,20,20,23,23,24,24,25,25,27,27,28,28,29,29,30,30],"right_children":[2,4,6,-1,8,10,12,14,16,-1,-1,18,20,-1,-1,22,-1,24,26,28,30,-1,-1,32,34,36,-1,38,40,42,44,-1,-1,-1,-1,-1,-1,-1,-1,-1,-1,-1,-1,-1,-1],"split_conditions":[3.7206978E-1,2.3458052E-1,2.352897E-1,-2.7385324E-2,4.2960998E-1,2.7279848E-1,3.1451595E-1,3.6779523E-1,5.98953E-1,-6.387025E-3,4.1818712E-2,6.859772E-1,1.3094892E-1,2.8082078E-2,-1.6575573E-2,6.7824686E-1,-0E0,5.816987E-1,6.7540276E-1,1.0425394E-1,2.1770631E-1,4.526282E-2,3.6544814E-3,5.265653E-1,3.9208576E-1,3.6940563E-1,3.78015E-2,5.2400976E-1,5.503129E-1,5.88754E-1,7.2831875E-1,-1.0720947E-2,1.8255193E-2,4.5902364E-2,1.0447825E-2,2.3600983E-2,-3.893384E-2,-3.0596849E-2,2.8564563E-2,4.8440672E-2,5.768994E-3,-2.5188543E-2,1.4812726E-3,-3.2893224E-3,2.9428866E-2],"split_indices":[4,2,1,0,0,6,5,0,5,0,0,7,2,0,0,0,0,4,3,2,2,0,0,0,3,3,0,3,6,1,5,0,0,0,0,0,0,0,0,0,0,0,0,0,0],"split_type":[0,0,0,0,0,0,0,0,0,0,0,0,0,0,0,0,0,0,0,0,0,0,0,0,0,0,0,0,0,0,0,0,0,0,0,0,0,0,0,0,0,0,0,0,0],"sum_hessian":[7.9231256E2,2.4058352E1,7.682542E2,2.4426327E0,2.1615719E1,9.09998E0,7.5915424E2,2.4692588E0,1.9146461E1,1.236962E0,7.8630185E0,1.8198123E2,5.7717303E2,1.227325E0,1.2419338E0,1.8146461E1,1E0,1.6484029E2,1.7140947E1,1.4369143E1,5.628039E2,1.6900164E1,1.2462977E0,6.3726788E1,1.011135E2,1.4670354E1,2.4705927E0,4.6980934E0,9.67105E0,8.178442E1,4.8101947E2,4.0347363E1,2.3379425E1,8.685089E0,9.242841E1,1.7244117E0,1.2945943E1,2.7108588E0,1.9872342E0,8.425049E0,1.2460012E0,5.7488297E1,2.4296118E1,4.6909198E2,1.1927478E1],"tree_param":{"num_deleted":"0","num_feature":"9","num_nodes":"45","size_leaf_vector":"1"}},{"base_weights":[1.7392142E-3,9.7691417E-1,-2.9639298E-2,-2.68861E-2,1.2246101E0,2.7403563E-1,-9.1873124E-2,2.114723E-1,1.3340911E0,3.6114463E-1,-1.1070716E0,-1.5749042E-1,3.259036E-1,2.7819803E-2,-1.6461268E-2,1.4044904E0,-0E0,1.9763055E-1,8.862741E-1,-1.3598921E0,-0E0,2.154608E-1,-2.3284577E-1,1.11383E0,-1.5508056E-1,4.474282E-2,5.0171977E-3,1.1383396E0,8.511084E-2,1.0844796E0,-2.9859202E-2,-4.686715E-2,-7.002569E-3,-7.534376E-1,5.637193E-1,-3.7540185E-1,-3.5537437E-3,1.317033E0,-3.84063E-1,-1.4562291E0,6.985073E-2,-6.28044E-3,4.086712E-2,5.8815535E-3,-2.5101338E-2,4.3623004E-2,8.1592295E-3,3.4194168E-2,-2.7804732E-2,3.5001986E-2,6.046486E-3,-9.535338E-4,-1.7934565E-2,1.4420169E-2,-7.7770874E-3,4.208296E-2,-9.5867915E-3,2.9291337E-2,-4.003334E-2,-4.9583882E-2,-4.611494E-3,-3.0760795E-2,9.748608E-3],"categories":[],"categories_nodes":[],"categories_segments":[],"categories_sizes":[],"default_left":[0,0,0,0,0,0,0,0,0,0,0,0,0,0,0,0,0,0,0,0,0,0,0,0,0,0,0,0,0,0,0,0,0,0,0,0,0,0,0,0,0,0,0,0,0,0,0,0,0,0,0,0,0,0,0,0,0,0,0,0,0,0,0],"id":11,"left_children":[1,3,5,-1,7,9,11,13,15,17,19,21,23,-1,-1,25,-1,27,29,31,-1,33,35,37,39,-1,-1,41,43,45,-1,-1,-1,47,49,51,53,55,57,59,61,-1,-1,-1,-1,-1,-1,-1,-1,-1,-1,-1,-1,-1,-1,-1,-1,-1,-1,-1,-1,-1,-1],"loss_changes":[2.4384962E1,1.2657846E1,1.4540527E1,0E0,2.049427E0,1.6058062E1,1.7558374E1,2.4313462E0,1.8737183E0,1.0349764E1,2.2065535E0,1.5603293E1,3.319895E1,0E0,0E0,1.6230621E0,0E0,9.927829E0,1.1893074E1,9.2667294E-1,0E0,3.1890728E1,1.503093E1,1.0685459E1,1.626525E1,0E0,0E0,3.4377375E0,8.976659E0,7.4616795E0,0E0,0E0,0E0,9.249273E0,1.4759579E1,2.1624256E1,2.2144037E1,4.690624E0,7.3817625E0,1.6600342E0,1.3554558E1,0E0,0E0,0E0,0E0,0E0,0E0,0E0,0E0,0E0,0E0,0E0,0E0,0E0,0E0,0E0,0E0,0E0,0E0,0E0,0E0,0E0,0E0],"parents":[2147483647,0,0,1,1,2,2,4,4,5,5,6,6,7,7,8,8,9,9,10,10,11,11,12,12,15,15,17,17,18,18,19,19,21,21,22,22,23,23,24,24,27,27,28,28,29,29,33,33,34,34,35,35,36,36,37,37,38,38,39,39,40,40],"right_children":[2,4,6,-1,8,10,12,14,16,18,20,22,24,-1,-1,26,-1,28,30,32,-1,34,36,38,40,-1,-1,42,44,46,-1,-1,-1,48,50,52,54,56,58,60,62,-1,-1,-1,-1,-1,-1,-1,-1,-1,-1,-1,-1,-1,-1,-1,-1,-1,-1,-1,-1,-1,-1],"split_conditions":[3.7206978E-1,2.3458052E-1,4.2050406E-1,-2.68861E-2,4.2960998E-1,7.222949E-1,6.8038523E-1,3.2103738E-1,5.98953E-1,3.987141E-1,5.038649E-1,4.913635E-1,4.8801553E-1,2.7819803E-2,-1.6461268E-2,6.473215E-1,-0E0,2.352897E-1,6.152208E-1,6.0107493E-1,-0E0,4.6779913E-1,5.88754E-1,4.3712652E-1,3.2197192E-1,4.474282E-2,5.0171977E-3,2.7279848E-1,6.62262E-1,6.186393E-1,-2.9859202E-2,-4.686715E-2,-7.002569E-3,3.6438385E-1,5.1979154E-1,4.2472544E-1,4.9195817E-1,6.940466E-1,5.266115E-1,7.7029544E-1,4.7808054E-1,-6.28044E-3,4.086712E-2,5.8815535E-3,-2.5101338E-2,4.3623004E-2,8.1592295E-3,3.4194168E-2,-2.7804732E-2,3.5001986E-2,6.046486E-3,-9.535338E-4,-1.7934565E-2,1.4420169E-2,-7.7770874E-3,4.208296E-2,-9.5867915E-3,2.9291337E-2,-4.003334E-2,-4.9583882E-2,-4.611494E-3,-3.0760795E-2,9.748608E-3],"split_indices":[4,2,1,0,0,8,4,3,5,1,6,4,0,0,0,6,0,1,5,5,0,0,1,2,6,0,0,6,0,7,0,0,0,3,7,6,0,6,3,4,1,0,0,0,0,0,0,0,0,0,0,0,0,0,0,0,0,0,0,0,0,0,0],"split_type":[0,0,0,0,0,0,0,0,0,0,0,0,0,0,0,0,0,0,0,0,0,0,0,0,0,0,0,0,0,0,0,0,0,0,0,0,0,0,0,0,0,0,0,0,0,0,0,0,0,0,0,0,0,0,0,0,0,0,0,0,0,0,0],"sum_hessian":[7.918642E2,2.3845713E1,7.680185E2,2.4320755E0,2.1413637E1,1.297726E2,6.382459E2,2.4632928E0,1.8950344E1,1.2283601E2,6.9365797E0,5.523539E2,8.589201E1,1.2231435E0,1.2401493E0,1.7950344E1,1E0,9.4864136E1,2.7971882E1,5.4530597E0,1.4835203E0,9.230896E1,4.6004492E2,3.2137688E1,5.3754326E1,1.6504381E1,1.4459622E0,9.065708E0,8.579842E1,2.573748E1,2.2344024E0,4.2195044E0,1.2335552E0,2.4023106E1,6.828586E1,2.8301483E2,1.770301E2,2.846381E1,3.6738756E0,7.181624E0,4.65727E1,1.2371844E0,7.8285236E0,7.73814E1,8.41702E0,1.7062687E1,8.674792E0,1.4994808E0,2.2523624E1,2.4685991E1,4.3599865E1,1.1183333E2,1.7118149E2,6.0735218E1,1.1629488E2,2.7240788E1,1.2230228E0,1.4564459E0,2.2174296E0,5.939559E0,1.2420648E0,8.154086E0,3.8418613E1],"tree_param":{"num_deleted":"0","num_feature":"9","num_nodes":"63","size_leaf_vector":"1"}},{"base_weights":[1.6862475E-3,9.575572E-1,-2.8820802E-2,-2.6401829E-2,1.2020193E0,-6.517348E-1,4.5315197E-4,2.0793423E-1,1.3100983E0,-4.632929E-2,-7.3842555E-2,-1.0088989E-1,2.3255153E-1,2.7420841E-2,-1.6198743E-2,1.3799707E0,-0E0,9.810231E-1,-4.348102E-1,1.6458006E-1,-2.5880727E-1,-2.2159189E-1,3.9840114E-1,4.3768264E-2,3.1190289E-3,3.9016847E-2,-0E0,-6.8532145E-1,3.3384543E-2,-6.5476984E-2,1.0044506E0,2.6279837E-1,-4.6424448E-1,-3.8248116E-1,1.1436986E0,6.583449E-1,5.8172967E-2,1.3049438E-2,-2.7410356E-2,2.596238E-3,-3.0275086E-2,3.3768736E-2,-2.6147463E-3,-2.9850615E-2,1.3259337E-2,-5.8518946E-3,-2.108109E-2,1.6193958E-2,-1.4922919E-2,3.98936E-2,4.461203E-3,1.418311E-2,3.6301874E-2,2.4539009E-2,-3.1624648E-3],"categories":[],"categories_nodes":[],"categories_segments":[],"categories_sizes":[],"default_left":[0,0,0,0,0,0,0,0,0,0,0,0,0,0,0,0,0,0,0,0,0,0,0,0,0,0,0,0,0,0,0,0,0,0,0,0,0,0,0,0,0,0,0,0,0,0,0,0,0,0,0,0,0,0,0],"id":12,"left_children":[1,3,5,-1,7,9,11,13,15,-1,17,19,21,-1,-1,23,-1,25,27,29,31,33,35,-1,-1,-1,-1,37,-1,39,41,43,45,47,49,51,53,-1,-1,-1,-1,-1,-1,-1,-1,-1,-1,-1,-1,-1,-1,-1,-1,-1,-1],"loss_changes":[2.3217651E1,1.2153538E1,1.4077951E1,0E0,1.9616852E0,1.7594875E1,1.732001E1,2.356531E0,1.8078995E0,0E0,8.805381E0,2.1510445E1,1.6972055E1,0E0,0E0,1.5814095E0,0E0,1.7604218E0,7.4135256E0,3.7120766E1,3.460064E1,1.36249485E1,1.4442436E1,0E0,0E0,0E0,0E0,4.419413E0,0E0,2.1842636E1,5.6631126E0,2.0975998E1,1.46138115E1,6.0773E0,8.672819E-1,8.782894E0,9.172555E0,0E0,0E0,0E0,0E0,0E0,0E0,0E0,0E0,0E0,0E0,0E0,0E0,0E0,0E0,0E0,0E0,0E0,0E0],"parents":[2147483647,0,0,1,1,2,2,4,4,5,5,6,6,7,7,8,8,10,10,11,11,12,12,15,15,17,17,18,18,19,19,20,20,21,21,22,22,27,27,29,29,30,30,31,31,32,32,33,33,34,34,35,35,36,36],"right_children":[2,4,6,-1,8,10,12,14,16,-1,18,20,22,-1,-1,24,-1,26,28,30,32,34,36,-1,-1,-1,-1,38,-1,40,42,44,46,48,50,52,54,-1,-1,-1,-1,-1,-1,-1,-1,-1,-1,-1,-1,-1,-1,-1,-1,-1,-1],"split_conditions":[3.7206978E-1,2.3458052E-1,3.2815778E-1,-2.6401829E-2,4.2960998E-1,5.594695E-1,5.927181E-1,3.6779523E-1,5.98953E-1,-4.632929E-2,3.318451E-1,4.9508888E-1,4.706636E-1,2.7420841E-2,-1.6198743E-2,6.7824686E-1,-0E0,5.8373785E-1,6.9974214E-1,6.4659774E-1,5.4649585E-1,7.259676E-1,5.670061E-1,4.3768264E-2,3.1190289E-3,3.9016847E-2,-0E0,3.741898E-1,3.3384543E-2,5.599289E-1,6.1738497E-1,2.2359529E-1,4.0793785E-1,4.165049E-1,3.422415E-1,5.4162365E-1,6.0730994E-1,1.3049438E-2,-2.7410356E-2,2.596238E-3,-3.0275086E-2,3.3768736E-2,-2.6147463E-3,-2.9850615E-2,1.3259337E-2,-5.8518946E-3,-2.108109E-2,1.6193958E-2,-1.4922919E-2,3.98936E-2,4.461203E-3,1.418311E-2,3.6301874E-2,2.4539009E-2,-3.1624648E-3],"split_indices":[4,2,0,0,0,4,3,0,5,0,8,0,0,0,0,0,0,3,1,4,4,4,1,0,0,0,0,7,0,3,5,2,5,4,2,5,3,0,0,0,0,0,0,0,0,0,0,0,0,0,0,0,0,0,0],"split_type":[0,0,0,0,0,0,0,0,0,0,0,0,0,0,0,0,0,0,0,0,0,0,0,0,0,0,0,0,0,0,0,0,0,0,0,0,0,0,0,0,0,0,0,0,0,0,0,0,0,0,0,0,0,0,0],"sum_hessian":[7.910625E2,2.362779E1,7.6743475E2,2.4208963E0,2.1206894E1,3.36458E1,7.3378894E2,2.4570134E0,1.874988E1,1.2497546E1,2.1148254E1,5.1086163E2,2.2292729E2,1.2183375E0,1.2386758E0,1.774988E1,1E0,4.8831882E0,1.6265068E1,1.9029211E2,3.2056952E2,5.9382378E1,1.6354492E2,1.6506556E1,1.2433255E0,3.3881845E0,1.4950036E0,1.4534236E1,1.7308309E0,1.500056E2,4.028651E1,9.036543E1,2.3020409E2,5.3831802E1,5.5505767E0,9.201441E1,7.15305E1,2.2336044E0,1.23006315E1,1.2988493E2,2.012067E1,3.631573E1,3.970779E0,1.0630351E1,7.9735085E1,1.0918695E2,1.21017136E2,5.459823E0,4.837198E1,4.3079076E0,1.2426693E0,7.0379776E1,2.1634638E1,1.2072123E1,5.945838E1],"tree_param":{"num_deleted":"0","num_feature":"9","num_nodes":"55","size_leaf_vector":"1"}},{"base_weights":[1.8125516E-3,9.391655E-1,-2.7859205E-2,-2.5931712E-2,1.180654E0,2.6393104E-1,-8.760247E-2,2.0449162E-1,1.2875001E0,3.488794E-1,-1.0819482E0,1.7506386E-1,-1.8522644E-1,2.7175147E-2,-1.6090544E-2,1.3569596E0,-0E0,1.9023901E-1,8.586658E-1,-1.3291732E0,-0E0,5.728741E-2,6.884874E-1,-8.783129E-2,-5.062588E-1,4.3318603E-2,4.424786E-3,1.1030899E0,8.150707E-2,1.0518715E0,-2.9102901E-2,-4.569304E-2,-7.079011E-3,-2.1352778E-1,5.5562717E-1,9.684859E-1,-2.6874274E-1,-1.88514E-1,3.7811208E-1,-6.930038E-1,2.8952667E-1,-6.3528586E-3,3.971704E-2,5.6884736E-3,-2.4474809E-2,4.230929E-2,7.979121E-3,2.9868469E-2,-9.515605E-3,-1.3918097E-3,2.5534056E-2,-7.001602E-3,3.627471E-2,-3.6525875E-2,3.8569644E-2,-6.4843628E-3,2.9216008E-2,-2.0590372E-2,1.7900506E-2,-2.2043074E-3,-2.9386744E-2,-5.2911285E-3,3.993157E-2],"categories":[],"categories_nodes":[],"categories_segments":[],"categories_sizes":[],"default_left":[0,0,0,0,0,0,0,0,0,0,0,0,0,0,0,0,0,0,0,0,0,0,0,0,0,0,0,0,0,0,0,0,0,0,0,0,0,0,0,0,0,0,0,0,0,0,0,0,0,0,0,0,0,0,0,0,0,0,0,0,0,0,0],"id":13,"left_children":[1,3,5,-1,7,9,11,13,15,17,19,21,23,-1,-1,25,-1,27,29,31,-1,33,35,37,39,-1,-1,41,43,45,-1,-1,-1,47,49,51,53,55,57,59,61,-1,-1,-1,-1,-1,-1,-1,-1,-1,-1,-1,-1,-1,-1,-1,-1,-1,-1,-1,-1,-1,-1],"loss_changes":[2.2110466E1,1.1677288E1,1.3382472E1,0E0,1.8806629E0,1.5210268E1,1.6392893E1,2.3154995E0,1.7470856E0,9.716562E0,2.1030645E0,1.0353404E1,1.4462723E1,0E0,0E0,1.578167E0,0E0,9.280051E0,1.1228378E1,8.2882786E-1,0E0,1.9324038E1,8.920494E0,1.688857E1,1.6289417E1,0E0,0E0,3.2940388E0,8.492951E0,6.9612846E0,0E0,0E0,0E0,1.1857986E1,9.090438E0,7.6386795E0,1.329095E1,9.64046E0,1.5273621E1,1.5420719E1,1.0602903E1,0E0,0E0,0E0,0E0,0E0,0E0,0E0,0E0,0E0,0E0,0E0,0E0,0E0,0E0,0E0,0E0,0E0,0E0,0E0,0E0,0E0,0E0],"parents":[2147483647,0,0,1,1,2,2,4,4,5,5,6,6,7,7,8,8,9,9,10,10,11,11,12,12,15,15,17,17,18,18,19,19,21,21,22,22,23,23,24,24,27,27,28,28,29,29,33,33,34,34,35,35,36,36,37,37,38,38,39,39,40,40],"right_children":[2,4,6,-1,8,10,12,14,16,18,20,22,24,-1,-1,26,-1,28,30,32,-1,34,36,38,40,-1,-1,42,44,46,-1,-1,-1,48,50,52,54,56,58,60,62,-1,-1,-1,-1,-1,-1,-1,-1,-1,-1,-1,-1,-1,-1,-1,-1,-1,-1,-1,-1,-1,-1],"split_conditions":[3.7206978E-1,2.3458052E-1,4.2050406E-1,-2.5931712E-2,4.2960998E-1,7.222949E-1,3.250908E-1,3.2103738E-1,5.98953E-1,3.987141E-1,5.038649E-1,6.358578E-1,5.617925E-1,2.7175147E-2,-1.6090544E-2,6.473215E-1,-0E0,2.352897E-1,6.152208E-1,6.0107493E-1,-0E0,6.113147E-1,6.4923036E-1,6.5534455E-1,4.5197657E-1,4.3318603E-2,4.424786E-3,2.7279848E-1,6.62262E-1,6.186393E-1,-2.9102901E-2,-4.569304E-2,-7.079011E-3,4.5083266E-1,5.7876927E-1,4.3495935E-1,7.2835326E-1,7.2831875E-1,4.7808054E-1,3.8099617E-1,6.2742716E-1,-6.3528586E-3,3.971704E-2,5.6884736E-3,-2.4474809E-2,4.230929E-2,7.979121E-3,2.9868469E-2,-9.515605E-3,-1.3918097E-3,2.5534056E-2,-7.001602E-3,3.627471E-2,-3.6525875E-2,3.8569644E-2,-6.4843628E-3,2.9216008E-2,-2.0590372E-2,1.7900506E-2,-2.2043074E-3,-2.9386744E-2,-5.2911285E-3,3.993157E-2],"split_indices":[4,2,1,0,0,8,5,3,5,1,6,3,0,0,0,6,0,1,5,5,0,1,1,4,2,0,0,6,0,7,0,0,0,4,4,0,4,5,1,8,7,0,0,0,0,0,0,0,0,0,0,0,0,0,0,0,0,0,0,0,0,0,0],"split_type":[0,0,0,0,0,0,0,0,0,0,0,0,0,0,0,0,0,0,0,0,0,0,0,0,0,0,0,0,0,0,0,0,0,0,0,0,0,0,0,0,0,0,0,0,0,0,0,0,0,0,0,0,0,0,0,0,0,0,0,0,0,0,0],"sum_hessian":[7.8975415E2,2.3395369E1,7.6635876E2,2.4091475E0,2.0986221E1,1.2937767E2,6.369811E2,2.4502409E0,1.853598E1,1.22463196E2,6.9144735E0,1.721034E2,4.648777E2,1.2136052E0,1.2366357E0,1.753598E1,1E0,9.45954E1,2.7867798E1,5.4345007E0,1.4799726E0,1.41053E2,3.1050407E1,3.578867E2,1.0699099E2,1.6101297E1,1.4346828E0,8.997002E0,8.55984E1,2.563862E1,2.229178E0,4.2040167E0,1.2304839E0,9.1629295E1,4.94237E1,2.4095085E1,6.9553223E0,2.949606E2,6.2926105E1,8.68621E1,2.0128893E1,1.2344438E0,7.7625575E0,7.719791E1,8.400493E0,1.6974867E1,8.6637535E0,6.4794593E0,8.514983E1,1.6438707E1,3.298499E1,3.955702E0,2.0139383E1,4.4935584E0,2.4617636E0,2.8899097E2,5.9696417E0,1.0277301E1,5.2648808E1,2.7978449E1,5.888365E1,1.441527E1,5.713623E0],"tree_param":{"num_deleted":"0","num_feature":"9","num_nodes":"63","size_leaf_vector":"1"}},{"base_weights":[1.9011823E-3,9.2142105E-1,-2.6943304E-2,-2.5475012E-2,1.1600401E0,-6.354167E-1,1.5329064E-3,2.0112804E-1,1.2657186E0,-4.5351416E-2,-7.1523726E-2,-9.548645E-2,2.2384211E-1,2.6794298E-2,-1.583563E-2,1.334809E0,-0E0,9.6211714E-1,-4.248184E-1,1.5817316E-1,-2.4632885E-1,1.3466875E-1,1.0492145E0,4.243252E-2,2.6120574E-3,3.8319096E-2,-0E0,-6.7066836E-1,3.2782055E-2,-6.284896E-2,9.7085E-1,2.5812227E-1,-4.4522563E-1,-3.9400128E-1,3.1557423E-1,1.2977992E0,7.7409684E-3,8.832342E-3,-2.7946485E-2,-9.32025E-3,1.4845265E-2,6.6259596E-3,3.4929365E-2,-2.8890243E-2,1.2945834E-2,-5.56154E-3,-2.0273585E-2,1.1111503E-2,-1.6117653E-2,2.6514135E-2,3.7984701E-3,4.315348E-2,-2.6217517E-3,2.4660552E-2,-3.5288513E-2],"categories":[],"categories_nodes":[],"categories_segments":[],"categories_sizes":[],"default_left":[0,0,0,0,0,0,0,0,0,0,0,0,0,0,0,0,0,0,0,0,0,0,0,0,0,0,0,0,0,0,0,0,0,0,0,0,0,0,0,0,0,0,0,0,0,0,0,0,0,0,0,0,0,0,0],"id":14,"left_children":[1,3,5,-1,7,9,11,13,15,-1,17,19,21,-1,-1,23,-1,25,27,29,31,33,35,-1,-1,-1,-1,37,-1,39,41,43,45,47,49,51,53,-1,-1,-1,-1,-1,-1,-1,-1,-1,-1,-1,-1,-1,-1,-1,-1,-1,-1],"loss_changes":[2.1065874E1,1.1223589E1,1.3350349E1,0E0,1.8041191E0,1.675161E1,1.5851077E1,2.2449553E0,1.6894913E0,0E0,8.416113E0,1.9596973E1,1.6184107E1,0E0,0E0,1.5464134E0,0E0,1.6959052E0,7.1142163E0,3.4439194E1,3.234401E1,1.9520706E1,5.4328365E0,0E0,0E0,0E0,0E0,4.2387047E0,0E0,2.099349E1,5.549221E0,1.9689814E1,1.3613117E1,5.913044E0,1.6092484E1,3.6305618E0,5.9755826E0,0E0,0E0,0E0,0E0,0E0,0E0,0E0,0E0,0E0,0E0,0E0,0E0,0E0,0E0,0E0,0E0,0E0,0E0],"parents":[2147483647,0,0,1,1,2,2,4,4,5,5,6,6,7,7,8,8,10,10,11,11,12,12,15,15,17,17,18,18,19,19,20,20,21,21,22,22,27,27,29,29,30,30,31,31,32,32,33,33,34,34,35,35,36,36],"right_children":[2,4,6,-1,8,10,12,14,16,-1,18,20,22,-1,-1,24,-1,26,28,30,32,34,36,-1,-1,-1,-1,38,-1,40,42,44,46,48,50,52,54,-1,-1,-1,-1,-1,-1,-1,-1,-1,-1,-1,-1,-1,-1,-1,-1,-1,-1],"split_conditions":[3.7206978E-1,2.3458052E-1,3.2815778E-1,-2.5475012E-2,4.2960998E-1,5.594695E-1,5.927181E-1,3.2103738E-1,5.98953E-1,-4.5351416E-2,3.318451E-1,4.9508888E-1,7.2835326E-1,2.6794298E-2,-1.583563E-2,6.7824686E-1,-0E0,5.8373785E-1,6.9974214E-1,6.4659774E-1,5.4649585E-1,4.6779913E-1,3.6472678E-1,4.243252E-2,2.6120574E-3,3.8319096E-2,-0E0,4.7913224E-1,3.2782055E-2,5.879739E-1,3.7414202E-1,2.2359529E-1,4.0793785E-1,2.9110983E-1,4.407839E-1,6.77762E-1,4.9351364E-1,8.832342E-3,-2.7946485E-2,-9.32025E-3,1.4845265E-2,6.6259596E-3,3.4929365E-2,-2.8890243E-2,1.2945834E-2,-5.56154E-3,-2.0273585E-2,1.1111503E-2,-1.6117653E-2,2.6514135E-2,3.7984701E-3,4.315348E-2,-2.6217517E-3,2.4660552E-2,-3.5288513E-2],"split_indices":[4,2,0,0,0,4,3,3,5,0,8,0,4,0,0,0,0,3,1,4,4,0,2,0,0,0,0,3,0,1,6,2,5,5,1,8,7,0,0,0,0,0,0,0,0,0,0,0,0,0,0,0,0,0,0],"split_type":[0,0,0,0,0,0,0,0,0,0,0,0,0,0,0,0,0,0,0,0,0,0,0,0,0,0,0,0,0,0,0,0,0,0,0,0,0,0,0,0,0,0,0,0,0,0,0,0,0,0,0,0,0,0,0],"sum_hessian":[7.889385E2,2.315982E1,7.657787E2,2.3968797E0,2.0762941E1,3.3439903E1,7.3233875E2,2.443193E0,1.8319748E1,1.2365524E1,2.1074379E1,5.0992142E2,2.2241734E2,1.2082242E0,1.2349688E0,1.7319748E1,1E0,4.8572145E0,1.6217165E1,1.898889E2,3.200325E2,2.018895E2,2.0527851E1,1.6080078E1,1.2396708E0,3.3626938E0,1.4945209E0,1.4493167E1,1.7239981E0,1.499161E2,3.997278E1,9.027426E1,2.2975826E2,5.103026E1,1.5085924E2,1.6296078E1,4.231774E0,2.975188E0,1.1517979E1,1.0422361E2,4.5692505E1,8.741936E0,3.1230843E1,1.058736E1,7.96869E1,1.0907212E2,1.20686134E2,7.6937566E0,4.3336502E1,3.6597607E1,1.1426163E2,1.4824559E1,1.4715192E0,2.7385902E0,1.4931834E0],"tree_param":{"num_deleted":"0","num_feature":"9","num_nodes":"55","size_leaf_vector":"1"}},{"base_weights":[1.9931674E-3,9.0451044E-1,-2.6064478E-2,-2.5031045E-2,1.1404873E0,-6.195933E-1,1.5817315E-3,1.9785397E-1,1.2451434E0,-4.452543E-2,-6.674213E-2,-9.270972E-2,2.1771535E-1,2.6561677E-2,-1.573089E-2,1.3139653E0,-0E0,9.4428885E-1,-4.120478E-1,-1.671722E-2,-5.8058804E-1,1.3091293E-1,1.0241549E0,4.204249E-2,3.8633652E-3,3.765525E-2,-0E0,-6.5323967E-1,3.224702E-2,-3.3414268E-1,7.9537556E-2,-1.0753944E0,-1.6671808E-1,-3.82602E-1,3.0666703E-1,1.2686529E0,4.918913E-3,1.2952427E-2,-2.6305644E-2,-1.567514E-2,1.3622117E-2,3.0872386E-4,2.7466E-2,-3.7959773E-2,7.1071705E-4,1.4844793E-2,-1.7674806E-2,-2.0429024E-2,-7.307902E-5,1.8539922E-2,-6.331533E-4,4.2218365E-2,-2.5745064E-3,2.414758E-2,-3.4652673E-2],"categories":[],"categories_nodes":[],"categories_segments":[],"categories_sizes":[],"default_left":[0,0,0,0,0,0,0,0,0,0,0,0,0,0,0,0,0,0,0,0,0,0,0,0,0,0,0,0,0,0,0,0,0,0,0,0,0,0,0,0,0,0,0,0,0,0,0,0,0,0,0,0,0,0,0],"id":15,"left_children":[1,3,5,-1,7,9,11,13,15,-1,17,19,21,-1,-1,23,-1,25,27,29,31,33,35,-1,-1,-1,-1,37,-1,39,41,43,45,47,49,51,53,-1,-1,-1,-1,-1,-1,-1,-1,-1,-1,-1,-1,-1,-1,-1,-1,-1,-1],"loss_changes":[2.008046E1,1.0794168E1,1.2626629E1,0E0,1.7331295E0,1.6112633E1,1.4959392E1,2.206365E0,1.636076E0,0E0,8.017584E0,1.8851381E1,1.5367456E1,0E0,0E0,1.5416946E0,0E0,1.6331549E0,6.81841E0,1.3580209E1,1.3738823E1,1.8401747E1,5.2046432E0,0E0,0E0,0E0,0E0,4.172738E0,0E0,1.5604246E1,1.9598555E1,6.6124916E0,1.1097451E1,5.825952E0,1.5552694E1,3.481329E0,5.7458754E0,0E0,0E0,0E0,0E0,0E0,0E0,0E0,0E0,0E0,0E0,0E0,0E0,0E0,0E0,0E0,0E0,0E0,0E0],"parents":[2147483647,0,0,1,1,2,2,4,4,5,5,6,6,7,7,8,8,10,10,11,11,12,12,15,15,17,17,18,18,19,19,20,20,21,21,22,22,27,27,29,29,30,30,31,31,32,32,33,33,34,34,35,35,36,36],"right_children":[2,4,6,-1,8,10,12,14,16,-1,18,20,22,-1,-1,24,-1,26,28,30,32,34,36,-1,-1,-1,-1,38,-1,40,42,44,46,48,50,52,54,-1,-1,-1,-1,-1,-1,-1,-1,-1,-1,-1,-1,-1,-1,-1,-1,-1,-1],"split_conditions":[3.7206978E-1,2.3458052E-1,3.2815778E-1,-2.5031045E-2,4.2960998E-1,5.594695E-1,5.927181E-1,3.6779523E-1,5.98953E-1,-4.452543E-2,3.318451E-1,6.163072E-1,7.2835326E-1,2.6561677E-2,-1.573089E-2,6.473215E-1,-0E0,5.8373785E-1,6.9974214E-1,4.3996313E-1,4.8818523E-1,4.6779913E-1,3.6472678E-1,4.204249E-2,3.8633652E-3,3.765525E-2,-0E0,3.741898E-1,3.224702E-2,6.393127E-1,6.938228E-1,5.440213E-1,4.424777E-1,5.470108E-1,5.5207634E-1,6.77762E-1,4.9351364E-1,1.2952427E-2,-2.6305644E-2,-1.567514E-2,1.3622117E-2,3.0872386E-4,2.7466E-2,-3.7959773E-2,7.1071705E-4,1.4844793E-2,-1.7674806E-2,-2.0429024E-2,-7.307902E-5,1.8539922E-2,-6.331533E-4,4.2218365E-2,-2.5745064E-3,2.414758E-2,-3.4652673E-2],"split_indices":[4,2,0,0,0,4,3,0,5,0,8,0,4,0,0,6,0,3,1,7,3,0,2,0,0,0,0,7,0,4,1,2,6,7,1,8,7,0,0,0,0,0,0,0,0,0,0,0,0,0,0,0,0,0,0],"split_type":[0,0,0,0,0,0,0,0,0,0,0,0,0,0,0,0,0,0,0,0,0,0,0,0,0,0,0,0,0,0,0,0,0,0,0,0,0,0,0,0,0,0,0,0,0,0,0,0,0,0,0,0,0,0,0],"sum_hessian":[7.8758844E2,2.2912098E1,7.6467633E2,2.3841405E0,2.0527958E1,3.324096E1,7.314354E2,2.435703E0,1.8092255E1,1.2237546E1,2.1003414E1,5.0933774E2,2.2209766E2,1.2030013E0,1.2327018E0,1.7092255E1,1E0,4.8318496E0,1.6171564E1,4.4176685E2,6.757089E1,2.0167624E2,2.0421413E1,1.5669251E1,1.4230031E0,3.3373287E0,1.4945209E0,1.445484E1,1.7167245E0,1.0245663E2,3.393102E2,2.9938095E1,3.7632793E1,5.097948E1,1.5069676E2,1.6193932E1,4.2274814E0,2.2345896E0,1.222025E1,8.306925E1,1.9387373E1,3.1439993E2,2.491028E1,2.5475447E1,4.4626484E0,1.4506907E1,2.3125889E1,2.7971973E1,2.3007507E1,7.6989174E1,7.370759E1,1.4722016E1,1.4719151E0,2.7341723E0,1.493309E0],"tree_param":{"num_deleted":"0","num_feature":"9","num_nodes":"55","size_leaf_vector":"1"}},{"base_weights":[2.0164757E-3,8.881436E-1,-2.5270497E-2,-2.4599163E-2,1.1215571E0,2.3619646E-1,-8.6107E-2,1.9465396E-1,1.2252374E0,3.6803377E-1,-4.071613E-1,9.32248E-1,-1.1334373E-1,2.6197618E-2,-1.5483314E-2,1.2938238E0,-0E0,-3.1150553E-1,5.0830966E-1,-6.452149E-1,7.251375E-1,-2.0146252E-1,1.448469E0,-5.1756203E-1,-4.449581E-2,4.1231547E-2,2.131201E-3,-6.2021893E-1,3.4391053E-2,3.4605858E-1,9.4432443E-1,-9.090075E-1,3.2762116E-1,4.0916666E-2,-1.6594706E-2,-3.0607201E-2,2.748248E-2,4.7382034E-2,4.981947E-3,-2.5278664E-1,-1.0413009E0,-6.728373E-2,1.0677513E0,2.2839366E-2,-2.9177839E-2,3.968172E-3,3.6985677E-2,3.934743E-2,-3.3072208E-3,-4.505867E-2,-3.1021524E-3,-3.28159E-2,3.686379E-2,-1.4884714E-2,1.607802E-2,-4.2169817E-2,-2.6528255E-4,1.8756283E-2,-3.0440632E-3,4.2041466E-2,1.5929951E-3],"categories":[],"categories_nodes":[],"categories_segments":[],"categories_sizes":[],"default_left":[0,0,0,0,0,0,0,0,0,0,0,0,0,0,0,0,0,0,0,0,0,0,0,0,0,0,0,0,0,0,0,0,0,0,0,0,0,0,0,0,0,0,0,0,0,0,0,0,0,0,0,0,0,0,0,0,0,0,0,0,0],"id":16,"left_children":[1,3,5,-1,7,9,11,13,15,17,19,21,23,-1,-1,25,-1,27,29,31,33,35,37,39,41,-1,-1,43,-1,45,47,49,51,-1,-1,-1,-1,-1,-1,53,55,57,59,-1,-1,-1,-1,-1,-1,-1,-1,-1,-1,-1,-1,-1,-1,-1,-1,-1,-1],"loss_changes":[1.915066E1,1.0384222E1,1.2171648E1,0E0,1.6657181E0,1.2387547E1,1.7262835E1,2.139805E0,1.5852413E0,1.1658304E1,7.169311E0,9.8992195E0,1.6794493E1,0E0,0E0,1.5175972E0,0E0,1.0157189E1,6.641918E0,5.788615E0,4.6910353E0,6.3315644E0,1.4632473E0,1.1801743E1,1.3136076E1,0E0,0E0,9.584045E0,0E0,1.3893888E1,1.0514198E1,7.804492E0,7.980401E0,0E0,0E0,0E0,0E0,0E0,0E0,1.1751258E1,1.07858715E1,1.2083976E1,3.3003416E0,0E0,0E0,0E0,0E0,0E0,0E0,0E0,0E0,0E0,0E0,0E0,0E0,0E0,0E0,0E0,0E0,0E0,0E0],"parents":[2147483647,0,0,1,1,2,2,4,4,5,5,6,6,7,7,8,8,9,9,10,10,11,11,12,12,15,15,17,17,18,18,19,19,20,20,21,21,22,22,23,23,24,24,27,27,29,29,30,30,31,31,32,32,39,39,40,40,41,41,42,42],"right_children":[2,4,6,-1,8,10,12,14,16,18,20,22,24,-1,-1,26,-1,28,30,32,34,36,38,40,42,-1,-1,44,-1,46,48,50,52,-1,-1,-1,-1,-1,-1,54,56,58,60,-1,-1,-1,-1,-1,-1,-1,-1,-1,-1,-1,-1,-1,-1,-1,-1,-1,-1],"split_conditions":[3.7206978E-1,2.3458052E-1,2.929382E-1,-2.4599163E-2,4.2960998E-1,6.5517783E-1,1.3094892E-1,3.2103738E-1,5.98953E-1,3.436378E-1,4.680376E-1,1.0425394E-1,2.1770631E-1,2.6197618E-2,-1.5483314E-2,6.7824686E-1,-0E0,6.832803E-1,2.731105E-1,6.7540276E-1,5.49954E-1,5.2400976E-1,5.503129E-1,5.2027714E-1,7.4129236E-1,4.1231547E-2,2.131201E-3,3.741898E-1,3.4391053E-2,5.810811E-1,5.4469746E-1,5.828415E-1,6.660086E-1,4.0916666E-2,-1.6594706E-2,-3.0607201E-2,2.748248E-2,4.7382034E-2,4.981947E-3,4.6823302E-1,6.579322E-1,2.4179627E-1,4.9508888E-1,2.2839366E-2,-2.9177839E-2,3.968172E-3,3.6985677E-2,3.934743E-2,-3.3072208E-3,-4.505867E-2,-3.1021524E-3,-3.28159E-2,3.686379E-2,-1.4884714E-2,1.607802E-2,-4.2169817E-2,-2.6528255E-4,1.8756283E-2,-3.0440632E-3,4.2041466E-2,1.5929951E-3],"split_indices":[4,2,5,0,0,7,2,3,5,6,2,2,2,0,0,0,0,3,5,3,3,3,6,6,5,0,0,7,0,7,7,4,7,0,0,0,0,0,0,6,4,6,0,0,0,0,0,0,0,0,0,0,0,0,0,0,0,0,0,0,0],"split_type":[0,0,0,0,0,0,0,0,0,0,0,0,0,0,0,0,0,0,0,0,0,0,0,0,0,0,0,0,0,0,0,0,0,0,0,0,0,0,0,0,0,0,0,0,0,0,0,0,0,0,0,0,0,0,0,0,0,0,0,0,0],"sum_hessian":[7.8651636E2,2.26631E1,7.638533E2,2.3709745E0,2.0292124E1,1.4332704E2,6.205262E2,2.4279714E0,1.7864153E1,1.194356E2,2.3891441E1,1.5202963E1,6.0532324E2,1.1971129E0,1.2308584E0,1.6864153E1,1E0,2.0105394E1,9.933021E1,2.0169508E1,3.7219334E0,4.886777E0,1.0316186E1,8.69361E1,5.1838715E2,1.5628718E1,1.2354343E0,1.7122723E1,2.9826713E0,7.386601E1,2.54642E1,1.5999511E1,4.169997E0,2.4893155E0,1.2326177E0,2.9222915E0,1.9644856E0,9.0795965E0,1.2365896E0,5.885542E1,2.808068E1,5.089883E2,9.39883E0,3.18627E0,1.3936452E1,6.053448E1,1.3331531E1,1.8776363E1,6.6878366E0,8.64673E0,7.35278E0,1.4919094E0,2.678088E0,4.535747E1,1.3497945E1,2.0417067E1,7.6636147E0,2.299335E1,4.8599496E2,6.7120996E0,2.6867306E0],"tree_param":{"num_deleted":"0","num_feature":"9","num_nodes":"61","size_leaf_vector":"1"}},{"base_weights":[2.2062103E-3,4.505441E-1,-4.9959008E-2,-3.45855E-1,7.8698665E-1,2.4373594E-1,-1.1059598E-1,-9.1313976E-1,4.2140335E-1,-6.852022E-2,1.0184549E0,3.2396135E-1,-1.0144725E0,-1.7893836E-1,2.8857067E-1,3.0347578E-2,-1.1950105E0,1.1886247E0,-3.391831E-2,4.6199968E-1,-3.729794E-2,1.3501749E0,4.48804E-1,1.4843757E-1,8.915676E-1,-1.2693083E0,-0E0,-1.360626E-1,-7.245754E-1,1.0324421E0,-1.583063E-1,1.8114792E-2,-1.4290313E0,3.042256E-1,4.6137456E-2,-2.8148226E-2,7.8189933E-1,1.4630207E0,4.0208426E-1,-8.37129E-1,7.825012E-1,-1.7277372E-1,5.0140095E-1,1.0433255E0,-2.3653764E-2,-4.4042032E-2,-6.9952714E-3,-9.4034106E-2,-6.157894E-1,-1.1299419E0,3.3922607E-1,1.2298836E0,-3.95275E-1,-1.4230443E0,6.0504034E-2,-6.6421833E-3,-4.573832E-2,2.7514895E-2,-1.3686142E-2,3.3200055E-2,-1.7724229E-2,4.893033E-2,2.868421E-2,2.8718373E-2,-8.53082E-3,-3.94464E-2,3.927897E-3,4.9873436E-4,3.3912446E-2,-1.1735624E-2,2.4945904E-2,-8.09082E-3,2.295492E-2,4.337756E-2,5.3091794E-3,-4.0180846E-3,1.2254107E-2,-3.943207E-3,-3.2289263E-2,3.1086294E-2,-3.847392E-2,4.423188E-2,-1.4036618E-2,3.9506294E-2,-1.1077796E-2,2.7914861E-2,-3.9233044E-2,-4.831834E-2,-4.8639653E-3,1.423866E-2,-1.622788E-2],"categories":[],"categories_nodes":[],"categories_segments":[],"categories_sizes":[],"default_left":[0,0,0,0,0,0,0,0,0,0,0,0,0,0,0,0,0,0,0,0,0,0,0,0,0,0,0,0,0,0,0,0,0,0,0,0,0,0,0,0,0,0,0,0,0,0,0,0,0,0,0,0,0,0,0,0,0,0,0,0,0,0,0,0,0,0,0,0,0,0,0,0,0,0,0,0,0,0,0,0,0,0,0,0,0,0,0,0,0,0,0],"id":17,"left_children":[1,3,5,7,9,11,13,15,17,19,21,23,25,27,29,-1,31,33,-1,35,-1,37,39,41,43,45,-1,47,49,51,53,-1,55,57,-1,-1,59,61,63,65,67,69,71,73,-1,-1,-1,75,77,79,81,83,85,87,89,-1,-1,-1,-1,-1,-1,-1,-1,-1,-1,-1,-1,-1,-1,-1,-1,-1,-1,-1,-1,-1,-1,-1,-1,-1,-1,-1,-1,-1,-1,-1,-1,-1,-1,-1,-1],"loss_changes":[1.8466026E1,2.237158E1,1.25790615E1,1.1338263E1,1.1701733E1,1.245068E1,1.602128E1,9.2533245E0,1.475578E1,8.911142E0,7.9082756E0,1.1158021E1,1.9384427E0,1.1535946E1,2.8773535E1,0E0,6.589712E0,1.8392305E0,0E0,5.1075425E0,0E0,2.2709923E0,8.605798E0,1.017475E1,7.650112E0,7.096672E-1,0E0,9.264629E0,1.602918E1,9.70797E0,1.5272802E1,0E0,8.9725304E-1,2.147593E0,0E0,0E0,4.530702E0,3.077774E-1,2.0549793E0,2.2521937E0,3.943225E0,1.059718E1,8.932548E0,8.285393E0,0E0,0E0,0E0,8.643957E0,8.025737E0,1.0088081E1,1.0558429E1,4.585354E0,6.8603024E0,1.4842739E0,1.2019817E1,0E0,0E0,0E0,0E0,0E0,0E0,0E0,0E0,0E0,0E0,0E0,0E0,0E0,0E0,0E0,0E0,0E0,0E0,0E0,0E0,0E0,0E0,0E0,0E0,0E0,0E0,0E0,0E0,0E0,0E0,0E0,0E0,0E0,0E0,0E0,0E0],"parents":[2147483647,0,0,1,1,2,2,3,3,4,4,5,5,6,6,7,7,8,8,9,9,10,10,11,11,12,12,13,13,14,14,16,16,17,17,19,19,21,21,22,22,23,23,24,24,25,25,27,27,28,28,29,29,30,30,32,32,33,33,36,36,37,37,38,38,39,39,40,40,41,41,42,42,43,43,47,47,48,48,49,49,50,50,51,51,52,52,53,53,54,54],"right_children":[2,4,6,8,10,12,14,16,18,20,22,24,26,28,30,-1,32,34,-1,36,-1,38,40,42,44,46,-1,48,50,52,54,-1,56,58,-1,-1,60,62,64,66,68,70,72,74,-1,-1,-1,76,78,80,82,84,86,88,90,-1,-1,-1,-1,-1,-1,-1,-1,-1,-1,-1,-1,-1,-1,-1,-1,-1,-1,-1,-1,-1,-1,-1,-1,-1,-1,-1,-1,-1,-1,-1,-1,-1,-1,-1,-1],"split_conditions":[4.5083266E-1,4.7471908E-1,4.2050406E-1,5.681231E-1,3.1047863E-1,7.222949E-1,6.8038523E-1,2.2719511E-1,4.2830604E-1,5.2246475E-1,5.962616E-1,3.987141E-1,5.038649E-1,6.464175E-1,4.8801553E-1,3.0347578E-2,4.1907576E-1,4.052788E-1,-3.391831E-2,3.2103738E-1,-3.729794E-2,5.946475E-1,3.1340164E-1,5.9333956E-1,6.152208E-1,6.0107493E-1,-0E0,6.436457E-1,6.118809E-1,4.3712652E-1,3.2197192E-1,1.8114792E-2,3.0069172E-1,3.7206978E-1,4.6137456E-2,-2.8148226E-2,6.8472385E-1,5.870372E-1,5.896921E-1,6.4301145E-1,6.33354E-1,6.15202E-1,3.4834436E-1,6.186393E-1,-2.3653764E-2,-4.4042032E-2,-6.9952714E-3,6.1086106E-1,4.4612175E-1,4.2463687E-1,5.063529E-1,6.940466E-1,5.266115E-1,7.7029544E-1,5.445357E-1,-6.6421833E-3,-4.573832E-2,2.7514895E-2,-1.3686142E-2,3.3200055E-2,-1.7724229E-2,4.893033E-2,2.868421E-2,2.8718373E-2,-8.53082E-3,-3.94464E-2,3.927897E-3,4.9873436E-4,3.3912446E-2,-1.1735624E-2,2.4945904E-2,-8.09082E-3,2.295492E-2,4.337756E-2,5.3091794E-3,-4.0180846E-3,1.2254107E-2,-3.943207E-3,-3.2289263E-2,3.1086294E-2,-3.847392E-2,4.423188E-2,-1.4036618E-2,3.9506294E-2,-1.1077796E-2,2.7914861E-2,-3.9233044E-2,-4.831834E-2,-4.8639653E-3,1.423866E-2,-1.622788E-2],"split_indices":[4,0,1,7,2,8,4,6,4,6,1,1,6,5,0,0,3,4,0,3,0,6,6,3,5,5,0,6,1,2,6,0,4,4,0,0,1,3,7,1,1,8,6,7,0,0,0,6,5,1,0,6,3,4,0,0,0,0,0,0,0,0,0,0,0,0,0,0,0,0,0,0,0,0,0,0,0,0,0,0,0,0,0,0,0,0,0,0,0,0,0],"split_type":[0,0,0,0,0,0,0,0,0,0,0,0,0,0,0,0,0,0,0,0,0,0,0,0,0,0,0,0,0,0,0,0,0,0,0,0,0,0,0,0,0,0,0,0,0,0,0,0,0,0,0,0,0,0,0,0,0,0,0,0,0,0,0,0,0,0,0,0,0,0,0,0,0,0,0,0,0,0,0,0,0,0,0,0,0,0,0,0,0,0,0],"sum_hessian":[7.858881E2,8.131348E1,7.0457465E2,2.4052702E1,5.7260773E1,1.197752E2,5.8479944E2,1.379405E1,1.0258652E1,1.225143E1,4.5009342E1,1.1336863E2,6.4065666E0,4.9999606E2,8.480339E1,1.3860371E0,1.2408013E1,7.0648108E0,3.193841E0,8.799248E0,3.4521813E0,2.7468258E1,1.7541086E1,8.768962E1,2.5679012E1,4.93426E0,1.4723066E0,4.648974E2,3.5098648E1,3.1418158E1,5.3385235E1,1.1972927E0,1.1210721E1,2.6110191E0,4.4537916E0,1.2187732E0,7.5804744E0,2.3967009E1,3.501251E0,3.241468E0,1.4299618E1,4.6028744E1,4.1660873E1,2.3953758E1,1.7252538E0,3.709322E0,1.2249379E0,4.2874026E2,3.6157146E1,2.5437426E1,9.6612215E0,2.7784412E1,3.6337457E0,7.1295333E0,4.6255703E1,1.1421851E0,1.0068536E1,1.4044055E0,1.2066138E0,6.345779E0,1.2346957E0,1.6187212E1,7.7797966E0,1.7980915E0,1.7031595E0,1.9996479E0,1.2418201E0,4.8838367E0,9.41578E0,3.8389866E1,7.6388803E0,1.0516099E1,3.1144775E1,1.5818515E1,8.135244E0,3.9806393E2,3.0676346E1,1.8354961E1,1.7802185E1,1.2490253E0,2.41884E1,3.7226381E0,5.938583E0,2.657764E1,1.2067715E0,1.4286815E0,2.2050643E0,5.8958497E0,1.2336836E0,2.7617052E1,1.863865E1],"tree_param":{"num_deleted":"0","num_feature":"9","num_nodes":"91","size_leaf_vector":"1"}},{"base_weights":[2.1742233E-3,8.587748E-1,-2.3711484E-2,-2.3931162E-2,1.0885117E0,-7.0348907E-1,-6.4989016E-4,1.916212E-1,1.1898154E0,2.9591527E-2,-9.5186013E-1,-9.24601E-2,2.0796771E-1,2.56101E-2,-1.5010766E-2,1.2618228E0,1.6755937E-3,-1.1375965E0,2.9138304E-2,-2.0719388E-2,-5.59591E-1,1.3769104E0,1.4423892E-1,4.0166963E-2,5.8891964E-3,-1.7247446E-2,-1.297964E0,-1.0646504E-1,3.4262252E-1,-1.0420501E0,-1.5750852E-1,4.6005037E-2,1.5211503E-2,6.2173165E-2,9.460096E-1,3.0769544E-2,-3.005894E-2,-4.3763805E-2,-9.762278E-3,2.5768397E-2,-4.540586E-3,2.8403863E-2,-5.9540593E-3,-3.680677E-2,6.3680543E-4,1.4748735E-2,-1.7200869E-2,-1.5018274E-2,6.2970915E-3,3.5938084E-2,-0E0],"categories":[],"categories_nodes":[],"categories_segments":[],"categories_sizes":[],"default_left":[0,0,0,0,0,0,0,0,0,0,0,0,0,0,0,0,0,0,0,0,0,0,0,0,0,0,0,0,0,0,0,0,0,0,0,0,0,0,0,0,0,0,0,0,0,0,0,0,0,0,0],"id":18,"left_children":[1,3,5,-1,7,9,11,13,15,-1,17,19,21,-1,-1,23,-1,25,-1,27,29,31,33,-1,-1,35,37,39,41,43,45,-1,-1,47,49,-1,-1,-1,-1,-1,-1,-1,-1,-1,-1,-1,-1,-1,-1,-1,-1],"loss_changes":[1.7529161E1,9.722986E0,1.1900875E1,0E0,1.5275936E0,1.1392294E1,1.4176241E1,2.02349E0,1.3030586E0,0E0,9.080627E0,1.7179409E1,1.6488245E1,0E0,0E0,9.9664116E-1,0E0,3.5881329E0,0E0,1.3951846E1,1.2965254E1,5.8320045E-1,1.4023272E1,0E0,0E0,4.8245544E0,2.1823902E0,1.5788571E1,2.8193935E1,6.1912727E0,1.0694818E1,0E0,0E0,1.6431398E1,4.6671696E0,0E0,0E0,0E0,0E0,0E0,0E0,0E0,0E0,0E0,0E0,0E0,0E0,0E0,0E0,0E0,0E0],"parents":[2147483647,0,0,1,1,2,2,4,4,5,5,6,6,7,7,8,8,10,10,11,11,12,12,15,15,17,17,19,19,20,20,21,21,22,22,25,25,26,26,27,27,28,28,29,29,30,30,33,33,34,34],"right_children":[2,4,6,-1,8,10,12,14,16,-1,18,20,22,-1,-1,24,-1,26,-1,28,30,32,34,-1,-1,36,38,40,42,44,46,-1,-1,48,50,-1,-1,-1,-1,-1,-1,-1,-1,-1,-1,-1,-1,-1,-1,-1,-1],"split_conditions":[3.7206978E-1,2.3458052E-1,3.05823E-1,-2.3931162E-2,4.2960998E-1,3.6940563E-1,5.927181E-1,3.6779523E-1,6.7824686E-1,2.9591527E-2,7.5992185E-1,6.163072E-1,2.9436377E-1,2.56101E-2,-1.5010766E-2,5.833192E-1,1.6755937E-3,3.741898E-1,2.9138304E-2,6.4998865E-1,4.8818523E-1,5.828415E-1,7.2835326E-1,4.0166963E-2,5.8891964E-3,3.4732288E-1,6.270717E-1,2.4179627E-1,4.9195817E-1,5.440213E-1,4.424777E-1,4.6005037E-2,1.5211503E-2,4.4199556E-1,3.6472678E-1,3.0769544E-2,-3.005894E-2,-4.3763805E-2,-9.762278E-3,2.5768397E-2,-4.540586E-3,2.8403863E-2,-5.9540593E-3,-3.680677E-2,6.3680543E-4,1.4748735E-2,-1.7200869E-2,-1.5018274E-2,6.2970915E-3,3.5938084E-2,-0E0],"split_indices":[4,2,0,0,0,3,3,0,0,0,1,0,1,0,0,5,0,7,0,4,3,4,4,0,0,6,4,6,0,2,6,0,0,0,2,0,0,0,0,0,0,0,0,0,0,0,0,0,0,0,0],"split_type":[0,0,0,0,0,0,0,0,0,0,0,0,0,0,0,0,0,0,0,0,0,0,0,0,0,0,0,0,0,0,0,0,0,0,0,0,0,0,0,0,0,0,0,0,0,0,0,0,0,0,0],"sum_hessian":[7.8485364E2,2.2191397E1,7.6266223E2,2.34873E0,1.9842667E1,2.391412E1,7.387481E2,2.4074082E0,1.7435259E1,2.6320534E0,2.1282066E1,5.137075E2,2.2504062E2,1.184752E0,1.2226562E0,1.6205273E1,1.2299869E0,1.9827587E1,1.4544798E0,4.464078E2,6.729969E1,1.0488102E1,2.1455252E2,1.4785325E1,1.419947E0,2.6995149E0,1.712807E1,3.6196848E2,8.443932E1,2.9755589E1,3.75441E1,8.144122E0,2.34398E0,1.9572159E2,1.8830942E1,1.2415193E0,1.4579955E0,1.4180316E1,2.9477556E0,1.5177602E1,3.4679086E2,3.962725E1,4.4812073E1,2.5297916E1,4.457671E0,1.4495095E1,2.3049007E1,4.0057083E1,1.5566449E2,1.4619341E1,4.211601E0],"tree_param":{"num_deleted":"0","num_feature":"9","num_nodes":"51","size_leaf_vector":"1"}},{"base_weights":[2.3065908E-3,4.3783027E-1,-4.8070528E-2,-3.314172E-1,7.6364183E-1,-6.975049E-2,7.207489E-1,-8.853155E-1,4.1671503E-1,-6.605025E-2,9.895971E-1,2.3038517E-1,-1.287063E-1,4.1940402E-2,-3.7910524E-1,2.9859047E-2,-1.1605111E0,1.1674216E0,-3.30288E-2,4.520132E-1,-3.638738E-2,1.3156922E0,4.311231E-1,3.0378816E-1,-1.0169525E0,5.4979995E-2,-2.6445517E-1,-3.9817195E-2,2.5147936E-1,1.7904134E-2,-1.3904356E0,2.9973075E-1,4.5173794E-2,-2.7376186E-2,7.6345575E-1,1.4272065E0,3.8107124E-1,-8.1870925E-1,7.5896186E-1,1.2045291E-1,8.5981405E-1,-4.296559E-2,-3.5665473E-3,-9.0021856E-2,8.293623E-1,-4.897879E-1,4.322879E-2,8.8342303E-1,-2.212161E-2,-6.5960204E-3,-4.4452917E-2,2.6763361E-2,-1.303996E-2,3.2471005E-2,-1.7383011E-2,4.7825634E-2,2.76633E-2,2.7869422E-2,-8.489809E-3,-3.8566586E-2,3.8222617E-3,5.7009663E-3,3.7752464E-2,2.0256955E-2,-1.8058623E-3,3.0294752E-2,-2.3262909E-2,-9.2985025E-3,8.415148E-3,3.225936E-2,-1.564364E-2,-2.7746787E-2,-9.723321E-3,3.445609E-2,-9.981733E-4,3.3699542E-2,4.5309854E-3],"categories":[],"categories_nodes":[],"categories_segments":[],"categories_sizes":[],"default_left":[0,0,0,0,0,0,0,0,0,0,0,0,0,0,0,0,0,0,0,0,0,0,0,0,0,0,0,0,0,0,0,0,0,0,0,0,0,0,0,0,0,0,0,0,0,0,0,0,0,0,0,0,0,0,0,0,0,0,0,0,0,0,0,0,0,0,0,0,0,0,0,0,0,0,0,0,0],"id":19,"left_children":[1,3,5,7,9,11,13,15,17,19,21,23,25,-1,27,-1,29,31,-1,33,-1,35,37,39,41,43,45,-1,47,-1,49,51,-1,-1,53,55,57,59,61,63,65,-1,-1,67,69,71,73,75,-1,-1,-1,-1,-1,-1,-1,-1,-1,-1,-1,-1,-1,-1,-1,-1,-1,-1,-1,-1,-1,-1,-1,-1,-1,-1,-1,-1,-1],"loss_changes":[1.7274694E1,2.0760555E1,1.1718734E1,1.0733928E1,1.0984615E1,1.21525955E1,1.4984654E1,8.781408E0,1.4047551E1,8.469537E0,7.553013E0,1.0552298E1,1.4349125E1,0E0,5.268377E0,0E0,6.297182E0,1.7228069E0,0E0,4.8312483E0,0E0,2.209835E0,8.151179E0,1.0730509E1,2.067E0,2.7598135E1,2.2984957E1,0E0,4.181843E0,0E0,8.0217934E-1,1.9916289E0,0E0,0E0,4.3406754E0,3.611679E-1,1.9506892E0,2.1521072E0,3.9215336E0,8.314924E0,7.256506E0,0E0,0E0,1.6933495E1,1.349408E1,1.3350624E1,1.202849E1,3.9676666E-1,0E0,0E0,0E0,0E0,0E0,0E0,0E0,0E0,0E0,0E0,0E0,0E0,0E0,0E0,0E0,0E0,0E0,0E0,0E0,0E0,0E0,0E0,0E0,0E0,0E0,0E0,0E0,0E0,0E0],"parents":[2147483647,0,0,1,1,2,2,3,3,4,4,5,5,6,6,7,7,8,8,9,9,10,10,11,11,12,12,14,14,16,16,17,17,19,19,21,21,22,22,23,23,24,24,25,25,26,26,28,28,30,30,31,31,34,34,35,35,36,36,37,37,38,38,39,39,40,40,43,43,44,44,45,45,46,46,47,47],"right_children":[2,4,6,8,10,12,14,16,18,20,22,24,26,-1,28,-1,30,32,-1,34,-1,36,38,40,42,44,46,-1,48,-1,50,52,-1,-1,54,56,58,60,62,64,66,-1,-1,68,70,72,74,76,-1,-1,-1,-1,-1,-1,-1,-1,-1,-1,-1,-1,-1,-1,-1,-1,-1,-1,-1,-1,-1,-1,-1,-1,-1,-1,-1,-1,-1],"split_conditions":[4.5083266E-1,4.7471908E-1,8.207008E-1,5.681231E-1,3.1047863E-1,4.2050406E-1,3.222218E-1,2.2719511E-1,4.2830604E-1,5.2246475E-1,5.962616E-1,7.222949E-1,5.0577104E-1,4.1940402E-2,3.273847E-1,2.9859047E-2,4.1907576E-1,4.052788E-1,-3.30288E-2,3.2103738E-1,-3.638738E-2,5.946475E-1,3.1340164E-1,3.987141E-1,2.8099573E-1,6.775929E-1,5.527018E-1,-3.9817195E-2,5.579272E-1,1.7904134E-2,3.0069172E-1,3.7206978E-1,4.5173794E-2,-2.7376186E-2,6.8472385E-1,5.870372E-1,5.896921E-1,6.4301145E-1,5.030924E-1,4.498617E-1,6.152208E-1,-4.296559E-2,-3.5665473E-3,5.821506E-1,4.3712652E-1,2.4674314E-1,4.8328632E-1,5.6559175E-1,-2.212161E-2,-6.5960204E-3,-4.4452917E-2,2.6763361E-2,-1.303996E-2,3.2471005E-2,-1.7383011E-2,4.7825634E-2,2.76633E-2,2.7869422E-2,-8.489809E-3,-3.8566586E-2,3.8222617E-3,5.7009663E-3,3.7752464E-2,2.0256955E-2,-1.8058623E-3,3.0294752E-2,-2.3262909E-2,-9.2985025E-3,8.415148E-3,3.225936E-2,-1.564364E-2,-2.7746787E-2,-9.723321E-3,3.445609E-2,-9.981733E-4,3.3699542E-2,4.5309854E-3],"split_indices":[4,0,4,7,2,1,2,6,4,6,1,8,0,0,1,0,3,4,0,3,0,6,6,1,2,4,3,0,7,0,4,4,0,0,1,3,7,1,3,7,5,0,0,1,2,2,4,6,0,0,0,0,0,0,0,0,0,0,0,0,0,0,0,0,0,0,0,0,0,0,0,0,0,0,0,0,0],"split_type":[0,0,0,0,0,0,0,0,0,0,0,0,0,0,0,0,0,0,0,0,0,0,0,0,0,0,0,0,0,0,0,0,0,0,0,0,0,0,0,0,0,0,0,0,0,0,0,0,0,0,0,0,0,0,0,0,0,0,0,0,0,0,0,0,0,0,0,0,0,0,0,0,0,0,0,0,0],"sum_hessian":[7.836097E2,8.065133E1,7.029584E2,2.3899649E1,5.675168E1,6.846901E2,1.8268251E1,1.3703915E1,1.0195735E1,1.2204119E1,4.4547558E1,1.116569E2,5.730332E2,1.1194668E1,7.0735836E0,1.3689276E0,1.2334987E1,7.020012E0,3.1757228E0,8.76393E0,3.4401882E0,2.7156086E1,1.7391472E1,1.0624145E2,5.4154468E0,2.4345903E2,3.295742E2,2.4474506E0,4.626133E0,1.1922241E0,1.1142763E1,2.5815208E0,4.438491E0,1.2102443E0,7.553686E0,2.3694891E1,3.4611955E0,3.2394128E0,1.415206E1,8.094755E1,2.5293898E1,3.2203715E0,2.1950755E0,2.0569717E2,3.7761852E1,1.9009271E2,1.3948149E2,2.9491863E0,1.6769469E0,1.1323009E0,1.0010462E1,1.3854191E0,1.1961017E0,6.3210278E0,1.2326581E0,1.6038492E1,7.6563993E0,1.7603856E0,1.7008098E0,1.9996523E0,1.2397605E0,7.3548355E0,6.797224E0,1.9347195E1,6.1600353E1,2.3574846E1,1.7190511E0,1.293526E2,7.634458E1,3.218057E1,5.5812855E0,5.0991554E1,1.3910117E2,8.206463E0,1.3127502E2,1.7166022E0,1.232584E0],"tree_param":{"num_deleted":"0","num_feature":"9","num_nodes":"77","size_leaf_vector":"1"}},{"base_weights":[2.3521094E-3,4.2772388E-1,-4.667248E-2,-3.2175237E-1,7.454508E-1,-6.775029E-2,7.0411485E-1,-8.6208814E-1,4.0786672E-1,-6.814603E-2,9.6779454E-1,2.2341107E-1,-1.2495628E-1,4.1093055E-2,-3.7114245E-1,2.9426303E-2,-1.1323932E0,1.144087E0,-3.2381605E-2,4.3757045E-1,-3.5622228E-2,1.2888137E0,4.2009893E-1,2.9514152E-1,-9.9558616E-1,5.345691E-2,-2.5678143E-1,-3.905279E-2,2.4728517E-1,1.7617395E-2,-1.3586332E0,2.9477662E-1,4.4213884E-2,-2.6990758E-2,7.4343044E-1,1.3979725E0,3.746206E-1,-8.0198383E-1,7.418591E-1,1.1705197E-1,8.365698E-1,-4.20723E-2,-3.4930964E-3,-8.7346114E-2,8.0920845E-1,-4.7602084E-1,4.215539E-2,8.6875796E-1,-2.1744136E-2,-6.490732E-3,-4.3433014E-2,2.6404273E-2,-1.2843328E-2,3.1698484E-2,-1.7102394E-2,4.6812087E-2,2.7121108E-2,2.7501602E-2,-8.325118E-3,-3.7815556E-2,3.7591655E-3,-3.4183771E-3,3.0638983E-2,1.9696465E-2,-1.7524878E-3,2.9508982E-2,-2.2851553E-2,-5.382407E-3,2.3302589E-2,3.151867E-2,-1.524637E-2,-2.3884838E-2,-7.824448E-3,4.133463E-3,-2.4737412E-2,3.313621E-2,4.4562193E-3],"categories":[],"categories_nodes":[],"categories_segments":[],"categories_sizes":[],"default_left":[0,0,0,0,0,0,0,0,0,0,0,0,0,0,0,0,0,0,0,0,0,0,0,0,0,0,0,0,0,0,0,0,0,0,0,0,0,0,0,0,0,0,0,0,0,0,0,0,0,0,0,0,0,0,0,0,0,0,0,0,0,0,0,0,0,0,0,0,0,0,0,0,0,0,0,0,0],"id":20,"left_children":[1,3,5,7,9,11,13,15,17,19,21,23,25,-1,27,-1,29,31,-1,33,-1,35,37,39,41,43,45,-1,47,-1,49,51,-1,-1,53,55,57,59,61,63,65,-1,-1,67,69,71,73,75,-1,-1,-1,-1,-1,-1,-1,-1,-1,-1,-1,-1,-1,-1,-1,-1,-1,-1,-1,-1,-1,-1,-1,-1,-1,-1,-1,-1,-1],"loss_changes":[1.6395708E1,1.963514E1,1.11117115E1,1.0174444E1,1.0552158E1,1.1427728E1,1.4322098E1,8.423226E0,1.3452438E1,8.050571E0,7.2519455E0,1.0065814E1,1.3521279E1,0E0,5.0634108E0,0E0,6.044037E0,1.6261034E0,0E0,4.637941E0,0E0,2.0892181E0,7.799647E0,1.0138597E1,1.9761558E0,2.6125965E1,2.1709457E1,0E0,4.036404E0,0E0,7.5178146E-1,1.9323262E0,0E0,0E0,4.162958E0,3.0963135E-1,1.8901259E0,2.073277E0,3.8182402E0,7.854239E0,6.934372E0,0E0,0E0,1.6517202E1,1.2850777E1,1.2832886E1,1.1687162E1,3.8019347E-1,0E0,0E0,0E0,0E0,0E0,0E0,0E0,0E0,0E0,0E0,0E0,0E0,0E0,0E0,0E0,0E0,0E0,0E0,0E0,0E0,0E0,0E0,0E0,0E0,0E0,0E0,0E0,0E0,0E0],"parents":[2147483647,0,0,1,1,2,2,3,3,4,4,5,5,6,6,7,7,8,8,9,9,10,10,11,11,12,12,14,14,16,16,17,17,19,19,21,21,22,22,23,23,24,24,25,25,26,26,28,28,30,30,31,31,34,34,35,35,36,36,37,37,38,38,39,39,40,40,43,43,44,44,45,45,46,46,47,47],"right_children":[2,4,6,8,10,12,14,16,18,20,22,24,26,-1,28,-1,30,32,-1,34,-1,36,38,40,42,44,46,-1,48,-1,50,52,-1,-1,54,56,58,60,62,64,66,-1,-1,68,70,72,74,76,-1,-1,-1,-1,-1,-1,-1,-1,-1,-1,-1,-1,-1,-1,-1,-1,-1,-1,-1,-1,-1,-1,-1,-1,-1,-1,-1,-1,-1],"split_conditions":[4.5083266E-1,4.7471908E-1,8.207008E-1,5.681231E-1,3.1047863E-1,4.2050406E-1,3.222218E-1,2.2719511E-1,4.2830604E-1,5.2246475E-1,5.962616E-1,7.222949E-1,5.0577104E-1,4.1093055E-2,3.273847E-1,2.9426303E-2,4.1907576E-1,4.052788E-1,-3.2381605E-2,3.2103738E-1,-3.5622228E-2,5.946475E-1,3.1340164E-1,3.987141E-1,2.8099573E-1,6.775929E-1,5.527018E-1,-3.905279E-2,5.579272E-1,1.7617395E-2,3.0069172E-1,3.7206978E-1,4.4213884E-2,-2.6990758E-2,6.8472385E-1,5.870372E-1,5.896921E-1,6.4301145E-1,4.4593874E-1,4.498617E-1,6.152208E-1,-4.20723E-2,-3.4930964E-3,6.8696666E-1,4.3712652E-1,2.973674E-1,6.1940974E-1,5.6559175E-1,-2.1744136E-2,-6.490732E-3,-4.3433014E-2,2.6404273E-2,-1.2843328E-2,3.1698484E-2,-1.7102394E-2,4.6812087E-2,2.7121108E-2,2.7501602E-2,-8.325118E-3,-3.7815556E-2,3.7591655E-3,-3.4183771E-3,3.0638983E-2,1.9696465E-2,-1.7524878E-3,2.9508982E-2,-2.2851553E-2,-5.382407E-3,2.3302589E-2,3.151867E-2,-1.524637E-2,-2.3884838E-2,-7.824448E-3,4.133463E-3,-2.4737412E-2,3.313621E-2,4.4562193E-3],"split_indices":[4,0,4,7,2,1,2,6,4,6,1,8,0,0,1,0,3,4,0,3,0,6,6,1,2,4,3,0,7,0,4,4,0,0,1,3,7,1,8,7,5,0,0,1,2,2,5,6,0,0,0,0,0,0,0,0,0,0,0,0,0,0,0,0,0,0,0,0,0,0,0,0,0,0,0,0,0],"split_type":[0,0,0,0,0,0,0,0,0,0,0,0,0,0,0,0,0,0,0,0,0,0,0,0,0,0,0,0,0,0,0,0,0,0,0,0,0,0,0,0,0,0,0,0,0,0,0,0,0,0,0,0,0,0,0,0,0,0,0,0,0,0,0,0,0,0,0,0,0,0,0,0,0,0,0,0,0],"sum_hessian":[7.8244165E2,8.027081E1,7.0217084E2,2.3800688E1,5.6470123E1,6.840107E2,1.8160149E1,1.3648491E1,1.0152197E1,1.2172492E1,4.429763E1,1.115584E2,5.724523E2,1.1104715E1,7.0554323E0,1.3621951E0,1.2286296E1,6.9899893E0,3.162208E0,8.742207E0,3.4302855E0,2.6959944E1,1.7337688E1,1.0615193E2,5.4064693E0,2.4317426E2,3.2927805E2,2.4401762E0,4.6152563E0,1.1915653E0,1.109473E1,2.56921E0,4.4207788E0,1.2050587E0,7.5371475E0,2.3513725E1,3.446217E0,3.237605E0,1.4100083E1,8.093217E1,2.5219765E1,3.2114465E0,2.195023E0,2.0561797E2,3.7556293E1,1.8981235E2,1.394657E2,2.94295E0,1.6723062E0,1.1323686E0,9.962362E0,1.3758765E0,1.1933336E0,6.305428E0,1.2317193E0,1.5917638E1,7.596088E0,1.7440338E0,1.7021834E0,1.9980655E0,1.2395395E0,3.528424E0,1.0571659E1,1.9329535E1,6.160263E1,2.3504215E1,1.71555E0,1.8664006E2,1.8977905E1,3.1975319E1,5.5809746E0,7.503139E1,1.1478095E2,1.26468834E2,1.299686E1,1.7105031E0,1.2324469E0],"tree_param":{"num_deleted":"0","num_feature":"9","num_nodes":"77","size_leaf_vector":"1"}},{"base_weights":[2.3302909E-3,4.178609E-1,-4.5358814E-2,-3.125178E-1,7.277943E-1,-6.585291E-2,6.8821985E-1,-8.399366E-1,3.994188E-1,-7.016982E-2,9.466894E-1,-1.0625883E0,-4.9489662E-2,4.02867E-2,-3.6346906E-1,2.9005492E-2,-1.1056439E0,1.1218506E0,-3.1758122E-2,4.2365333E-1,-3.4888845E-2,1.2632191E0,4.085671E-1,-1.2359957E0,3.928407E-3,2.622018E-1,-1.0932534E-1,-3.832214E-2,2.4321657E-1,1.7336546E-2,-1.3284653E0,2.8994617E-1,4.3306287E-2,-2.6615735E-2,7.2415274E-1,1.3702122E0,3.6833656E-1,-7.8586245E-1,7.244674E-1,-0E0,-4.3183945E-2,3.3726734E-1,-9.7509724E-1,8.5208476E-2,-2.4947926E-1,8.545419E-1,-2.1375764E-2,-6.3871774E-3,-4.246808E-2,2.6054438E-2,-1.2650164E-2,3.095588E-2,-1.682762E-2,4.5858268E-2,2.6594028E-2,2.7143426E-2,-8.163828E-3,-3.7144624E-2,3.742897E-3,-0E0,3.22138E-2,2.3359608E-2,4.538836E-3,-4.1224156E-2,-3.4211734E-3,-1.6860749E-3,2.5264911E-2,-1.3879346E-2,1.2217344E-3,3.259287E-2,4.3827076E-3],"categories":[],"categories_nodes":[],"categories_segments":[],"categories_sizes":[],"default_left":[0,0,0,0,0,0,0,0,0,0,0,0,0,0,0,0,0,0,0,0,0,0,0,0,0,0,0,0,0,0,0,0,0,0,0,0,0,0,0,0,0,0,0,0,0,0,0,0,0,0,0,0,0,0,0,0,0,0,0,0,0,0,0,0,0,0,0,0,0,0,0],"id":21,"left_children":[1,3,5,7,9,11,13,15,17,19,21,23,25,-1,27,-1,29,31,-1,33,-1,35,37,39,-1,41,43,-1,45,-1,47,49,-1,-1,51,53,55,57,59,-1,-1,61,63,65,67,69,-1,-1,-1,-1,-1,-1,-1,-1,-1,-1,-1,-1,-1,-1,-1,-1,-1,-1,-1,-1,-1,-1,-1,-1,-1],"loss_changes":[1.5556455E1,1.8569103E1,1.0542322E1,9.649693E0,1.01371765E1,1.0997222E1,1.3697499E1,8.084734E0,1.2889305E1,7.6553764E0,6.9846992E0,2.5293856E0,1.2591249E1,0E0,4.869071E0,0E0,5.805599E0,1.5372429E0,0E0,4.4539275E0,0E0,1.9784012E0,7.456066E0,2.3794718E0,0E0,1.0355466E1,1.5490389E1,0E0,3.8969321E0,0E0,7.060356E-1,1.8751405E0,0E0,0E0,3.9941092E0,2.668419E-1,1.8318403E0,2.0098245E0,3.8396883E0,0E0,0E0,8.26421E0,1.8917484E0,2.557895E1,2.0474112E1,3.646276E-1,0E0,0E0,0E0,0E0,0E0,0E0,0E0,0E0,0E0,0E0,0E0,0E0,0E0,0E0,0E0,0E0,0E0,0E0,0E0,0E0,0E0,0E0,0E0,0E0,0E0],"parents":[2147483647,0,0,1,1,2,2,3,3,4,4,5,5,6,6,7,7,8,8,9,9,10,10,11,11,12,12,14,14,16,16,17,17,19,19,21,21,22,22,23,23,25,25,26,26,28,28,30,30,31,31,34,34,35,35,36,36,37,37,38,38,41,41,42,42,43,43,44,44,45,45],"right_children":[2,4,6,8,10,12,14,16,18,20,22,24,26,-1,28,-1,30,32,-1,34,-1,36,38,40,-1,42,44,-1,46,-1,48,50,-1,-1,52,54,56,58,60,-1,-1,62,64,66,68,70,-1,-1,-1,-1,-1,-1,-1,-1,-1,-1,-1,-1,-1,-1,-1,-1,-1,-1,-1,-1,-1,-1,-1,-1,-1],"split_conditions":[4.5083266E-1,4.7471908E-1,8.207008E-1,5.681231E-1,3.1047863E-1,2.6872125E-1,3.222218E-1,2.2719511E-1,4.2830604E-1,5.2246475E-1,5.962616E-1,6.0914624E-1,4.2050406E-1,4.02867E-2,3.273847E-1,2.9005492E-2,4.1907576E-1,4.052788E-1,-3.1758122E-2,3.2103738E-1,-3.4888845E-2,5.946475E-1,3.1340164E-1,4.1741621E-1,3.928407E-3,7.222949E-1,5.0577104E-1,-3.832214E-2,5.579272E-1,1.7336546E-2,3.0069172E-1,3.7206978E-1,4.3306287E-2,-2.6615735E-2,6.8472385E-1,5.870372E-1,5.896921E-1,6.050022E-1,6.33354E-1,-0E0,-4.3183945E-2,4.820086E-1,2.8099573E-1,6.775929E-1,5.527018E-1,5.6559175E-1,-2.1375764E-2,-6.3871774E-3,-4.246808E-2,2.6054438E-2,-1.2650164E-2,3.095588E-2,-1.682762E-2,4.5858268E-2,2.6594028E-2,2.7143426E-2,-8.163828E-3,-3.7144624E-2,3.742897E-3,-0E0,3.22138E-2,2.3359608E-2,4.538836E-3,-4.1224156E-2,-3.4211734E-3,-1.6860749E-3,2.5264911E-2,-1.3879346E-2,1.2217344E-3,3.259287E-2,4.3827076E-3],"split_indices":[4,0,4,7,2,0,2,6,4,6,1,1,1,0,1,0,3,4,0,3,0,6,6,3,0,8,0,0,7,0,4,4,0,0,1,3,7,5,1,0,0,7,2,4,3,6,0,0,0,0,0,0,0,0,0,0,0,0,0,0,0,0,0,0,0,0,0,0,0,0,0],"split_type":[0,0,0,0,0,0,0,0,0,0,0,0,0,0,0,0,0,0,0,0,0,0,0,0,0,0,0,0,0,0,0,0,0,0,0,0,0,0,0,0,0,0,0,0,0,0,0,0,0,0,0,0,0,0,0,0,0,0,0,0,0,0,0,0,0,0,0,0,0,0,0],"sum_hessian":[7.8119763E2,7.984212E1,7.013555E2,2.3688232E1,5.615389E1,6.8331226E2,1.8043253E1,1.3584899E1,1.01033325E1,1.2135937E1,4.4017952E1,9.905239E0,6.7340704E2,1.1008636E1,7.0346165E0,1.3551137E0,1.2229786E1,6.9559174E0,3.1474152E0,8.717421E0,3.418516E0,2.6750004E1,1.7267948E1,8.690777E0,1.2144628E0,1.07640594E2,5.657665E2,2.431297E0,4.603319E0,1.1907543E0,1.1039031E1,2.556616E0,4.399301E0,1.1995502E0,7.5178704E0,2.3319046E1,3.4309578E0,3.234385E0,1.4033564E1,1.3976122E0,7.2931643E0,1.022457E2,5.394895E0,2.3678589E2,3.2898056E2,2.935921E0,1.6673983E0,1.1324178E0,9.906613E0,1.3660948E0,1.1905212E0,6.2872486E0,1.2306216E0,1.5784059E1,7.534988E0,1.7274826E0,1.7034752E0,1.9940941E0,1.2402909E0,4.8603E0,9.173264E0,2.9205343E1,7.304036E1,3.1999362E0,2.1949592E0,2.0018237E2,3.6603527E1,1.8952077E2,1.394598E2,1.7036209E0,1.2323E0],"tree_param":{"num_deleted":"0","num_feature":"9","num_nodes":"71","size_leaf_vector":"1"}},{"base_weights":[2.3209862E-3,3.1317315E-1,-5.93164E-2,-4.8972148E-1,6.397348E-1,1.1764263E-1,-1.7526709E-1,-1.0048577E0,1.3849185E-1,2.0647445E-1,8.4859586E-1,-6.635898E-2,6.619836E-1,-4.4224945E-1,1.4608306E-1,2.8596075E-2,-1.1920635E0,1.1006303E0,-5.58881E-1,5.505707E-1,-7.3188597E-1,1.1109128E0,1.9373055E-1,-1.2833305E-1,4.4664282E-2,8.8011426E-1,-2.1737199E-1,2.4208838E-1,-5.2778894E-1,4.3291432E-1,-1.3558227E-1,1.7061407E-2,-1.3411912E0,2.8523514E-1,4.244665E-2,-1.2035248E0,4.4782594E-1,-3.4533374E-2,7.210235E-1,-4.099483E-2,-1.6689086E-1,-1.0721018E-3,1.1590437E0,-8.185776E-1,8.9545953E-1,-3.2715082E-1,3.2143584E-1,6.2324506E-1,4.460921E-2,9.363044E-1,-8.810018E-1,-8.5844344E-1,9.2759293E-1,-4.594143E-1,-1.2373267E0,6.084026E-1,-1.3075799E-1,4.432544E-3,-1.153474E0,-5.748634E-3,-4.3779187E-2,2.5713451E-2,-1.2460381E-2,-4.098825E-2,-1.2282937E-2,3.4618434E-2,-2.7143063E-2,-6.288161E-3,2.9723387E-2,1.936317E-2,-1.7985512E-2,2.1181284E-2,4.059583E-2,1.0715963E-2,-4.7543027E-2,3.6575176E-2,-1.9449465E-2,-2.0362554E-2,4.7446403E-4,2.7633846E-2,-7.027439E-3,2.3489904E-2,-2.5537256E-2,3.5150766E-2,6.1500776E-3,-3.972613E-2,1.0303309E-2,-3.788469E-2,3.1234685E-2,3.655516E-2,2.8513917E-3,-1.0584754E-2,-2.7215173E-2,-4.0526733E-2,-9.977586E-3,2.7002597E-2,1.0369279E-2,1.616679E-2,-2.532777E-2,1.42124565E-2,-8.981994E-3,-2.2964682E-3,-3.997488E-2],"categories":[],"categories_nodes":[],"categories_segments":[],"categories_sizes":[],"default_left":[0,0,0,0,0,0,0,0,0,0,0,0,0,0,0,0,0,0,0,0,0,0,0,0,0,0,0,0,0,0,0,0,0,0,0,0,0,0,0,0,0,0,0,0,0,0,0,0,0,0,0,0,0,0,0,0,0,0,0,0,0,0,0,0,0,0,0,0,0,0,0,0,0,0,0,0,0,0,0,0,0,0,0,0,0,0,0,0,0,0,0,0,0,0,0,0,0,0,0,0,0,0,0],"id":22,"left_children":[1,3,5,7,9,11,13,15,17,19,21,23,25,27,29,-1,31,33,35,37,39,41,43,45,-1,47,49,51,53,55,57,-1,59,61,-1,63,65,-1,67,-1,69,-1,71,73,75,77,79,81,-1,83,85,87,89,91,93,95,97,99,101,-1,-1,-1,-1,-1,-1,-1,-1,-1,-1,-1,-1,-1,-1,-1,-1,-1,-1,-1,-1,-1,-1,-1,-1,-1,-1,-1,-1,-1,-1,-1,-1,-1,-1,-1,-1,-1,-1,-1,-1,-1,-1,-1,-1],"loss_changes":[1.5007989E1,3.4325188E1,1.3411352E1,1.2512672E1,8.107391E0,2.5993696E1,3.397001E1,8.883528E0,1.2678084E1,1.0597083E1,1.0316376E1,1.874878E1,1.2827332E1,1.2805531E1,1.4611408E1,0E0,6.018652E0,1.4553909E0,7.7399025E0,7.687583E0,2.7872834E0,2.581833E0,1.42885685E1,1.6873085E1,0E0,7.0921555E0,1.1335346E1,1.9335114E1,8.60191E0,8.978313E0,1.3129652E1,0E0,2.071621E0,1.8199794E0,0E0,1.7095757E-1,5.800885E0,0E0,5.8822336E0,0E0,2.4549952E0,0E0,2.5622063E0,8.140868E0,6.7442417E0,1.5835266E1,1.9555342E1,9.830113E0,0E0,5.595226E-1,5.5942492E0,8.935238E0,3.5487843E0,8.016663E0,1.0471134E0,4.8179493E0,1.0964223E1,1.1731405E1,1.9025326E0,0E0,0E0,0E0,0E0,0E0,0E0,0E0,0E0,0E0,0E0,0E0,0E0,0E0,0E0,0E0,0E0,0E0,0E0,0E0,0E0,0E0,0E0,0E0,0E0,0E0,0E0,0E0,0E0,0E0,0E0,0E0,0E0,0E0,0E0,0E0,0E0,0E0,0E0,0E0,0E0,0E0,0E0,0E0,0E0],"parents":[2147483647,0,0,1,1,2,2,